tree
version=v4
num_class=1
num_tree_per_iteration=1
label_index=0
max_feature_idx=35
objective=regression
feature_names=Delivery_person_Age Delivery_person_Ratings Restaurant_latitude Restaurant_longitude Delivery_location_latitude Delivery_location_longitude multiple_deliveries Distance_km Time_Orderd_in_minutes location_cluster date_category Total_Distance_km Max_Time_Diff_Minutes Shortest_Path_Distance_km Carbon_Reduction_g Group_Length Combined_Count Weatherconditions_conditions_Cloudy Weatherconditions_conditions_Fog Weatherconditions_conditions_Sandstorms Weatherconditions_conditions_Stormy Weatherconditions_conditions_Sunny Weatherconditions_conditions_Windy Road_traffic_density_High_ Road_traffic_density_Jam_ Road_traffic_density_Low_ Road_traffic_density_Medium_ Type_of_order_Buffet_ Type_of_order_Drinks_ Type_of_order_Meal_ Type_of_order_Snack_ Festival_No_ Festival_Yes_ City_Metropolitian_ City_Semi-Urban_ City_Urban_
feature_infos=[20:39] [2.5:5] [9.9571439999999996:30.914057] [72.768726000000001:88.433452000000003] [9.9807170000000003:31.054057] [72.778726000000006:88.563186999999999] [0:3] [1.5775999999999999:118.43689999999999] [0:1435] [0:21] [0:43] [3.4977999999999998:203.28829999999999] [0:20] [1.7681:150.02520000000001] [0.045719999999999997:7230.2979599999999] [2:6] [2:6] [0:1] [0:1] [0:1] [0:1] [0:1] [0:1] [0:1] [0:1] [0:1] [0:1] [0:1] [0:1] [0:1] [0:1] [0:1] [0:1] [0:1] [0:1] [0:1]
tree_sizes=2674 2782 2787 2793 2792 2778 2771 2798 2803 2809 2781 2798 2771 2809 2764 2773 2792 2769 2782 2752 2767 2770 2760 2792 2793 2759 2778 2777 2782 2796 2809 2770 2765 2778 2804 2812 2801 2818 2788 2803 2827 2767 2769 2737 2813 2764 2786 2790 2775 2764 2763 2786 2783 2768 2772 2782 2765 2751 2795 2782 2797 2791 2786 2786 2783 2763 2750 2757 2774 2796 2783 2788 2789 2781 2797 2784 2785 2783 2761 2769 2783 2811 2765 2790 2739 2757 2762 2780 2775 2785 2744 2798 2768 2787 2768 2769 2804 2758 2770 2777

Tree=0
num_leaves=31
num_cat=0
split_feature=12 12 8 12 8 8 12 8 11 8 8 8 8 8 14 8 8 10 8 20 5 8 8 8 11 3 8 8 14 10
split_gain=2353.06 567.593 392.924 318.767 109.875 104.553 56.6586 37.6536 226.132 42.8825 39.5051 55.6481 39.4628 50.1205 40.0089 32.9295 32.7992 29.8751 26.7179 24.6287 23.9947 23.9565 40.743 36.4852 30.1929 25.6719 25.0673 56.0417 52.4279 59.8182
threshold=12.500000000000002 17.500000000000004 1422.5000000000002 7.5000000000000009 1422.5000000000002 502.50000000000006 1.0000000180025095e-35 1047.5000000000002 53.315550000000009 972.50000000000011 1392.5000000000002 1417.5000000000002 1362.5000000000002 1367.5000000000002 785.24608000000012 1432.5000000000002 942.50000000000011 38.500000000000007 922.50000000000011 1.0000000180025095e-35 73.177770500000022 1072.5000000000002 1107.5000000000002 1085.0000000000002 91.497050000000016 80.256006000000014 1212.5000000000002 1232.5000000000002 1454.6707000000004 31.500000000000004
decision_type=2 2 2 2 2 2 2 2 2 2 2 2 2 2 2 2 2 2 2 2 2 2 2 2 2 2 2 2 2 2
left_child=3 4 5 6 -2 -3 -1 8 9 16 12 -12 21 -14 -15 -5 18 -16 19 20 -7 24 23 -23 -9 -25 -24 28 29 -28
right_child=1 2 -4 15 -6 7 -8 10 -10 -11 11 -13 13 14 17 -17 -18 -19 -20 -21 -22 22 26 25 -26 -27 27 -29 -30 -31
leaf_value=1.3919169144741379 1.5368190471063319 1.4208642828951905 1.7470451196023431 1.4926415521552974 1.6519169144741379 1.6431774186758186 1.4417856808783374 1.6079406533465415 1.4516291446899652 1.5383221432323078 1.5452103276477906 1.6483685273773636 1.7188399913972148 1.52669952316979 1.647068429625653 1.5919169144741379 1.6919169144741379 1.5385835811408046 1.5062026287598522 1.5517383430455665 1.5940621289955901 1.6002502478074712 1.6042284722630826 1.5243370057983388 1.7178428404000639 1.635395175343703 1.6319169144741379 1.5926078692480072 1.4943962533171131 1.4896441872014106
leaf_weight=325 3423 38 156 1932 85 119 762 337 139 153 334 62 52 46 165 34 34 30 35 112 606 132 1194 219 27 23 90 1592 121 44
leaf_count=325 3423 38 156 1932 85 119 762 337 139 153 334 62 52 46 165 34 34 30 35 112 606 132 1194 219 27 23 90 1592 121 44
internal_value=1.54657 1.57142 1.59047 1.47033 1.53961 1.58618 1.42688 1.58729 1.57155 1.58729 1.59151 1.56136 1.59445 1.6298 1.61059 1.49436 1.59556 1.63038 1.5918 1.59538 1.60212 1.59171 1.58911 1.55796 1.61609 1.53489 1.59294 1.58564 1.54211 1.5852
internal_weight=0 9368 5860 3053 3508 5704 1087 5666 1198 1059 4468 396 4072 293 241 1966 906 195 872 837 725 3779 3415 374 364 242 3041 1847 255 134
internal_count=12421 9368 5860 3053 3508 5704 1087 5666 1198 1059 4468 396 4072 293 241 1966 906 195 872 837 725 3779 3415 374 364 242 3041 1847 255 134
is_linear=0
shrinkage=1


Tree=1
num_leaves=31
num_cat=0
split_feature=12 12 8 12 8 8 12 8 11 8 8 8 8 8 14 13 8 8 4 8 8 8 20 10 0 13 3 2 8 8
split_gain=1905.98 459.751 318.268 258.202 88.9992 85.0715 45.8935 32.3459 181.359 33.649 32.0444 51.8311 41.0657 28.2115 27.7384 27.698 27.0788 26.6729 26.5587 23.631 21.768 21.1599 21.4829 20.4467 20.5424 20.3727 23.9042 20.307 20.2416 67.0265
threshold=12.500000000000002 17.500000000000004 1422.5000000000002 7.5000000000000009 1422.5000000000002 497.50000000000006 1.0000000180025095e-35 1047.5000000000002 53.315550000000009 972.50000000000011 1385.0000000000002 1362.5000000000002 1417.5000000000002 1367.5000000000002 819.13476000000003 36.116350000000004 942.50000000000011 1432.5000000000002 23.469113500000002 1427.5000000000002 507.50000000000006 922.50000000000011 1.0000000180025095e-35 26.500000000000004 31.500000000000004 20.108950000000004 85.325589000000022 25.458731000000004 1085.0000000000002 1107.5000000000002
decision_type=2 2 2 2 2 2 2 2 2 2 2 2 2 2 2 2 2 2 2 2 2 2 2 2 2 2 2 2 2 2
left_child=3 4 5 6 20 -3 -1 8 9 16 11 25 15 -13 -15 -12 21 -5 23 -4 -2 22 -7 24 -16 26 -9 -11 -27 -30
right_child=1 2 19 17 -6 7 -8 10 -10 27 12 13 -14 14 18 -17 -18 -19 -20 -21 -22 -23 -24 -25 -26 28 -28 -29 29 -31
leaf_value=-0.13919168710708618 -0.10368190904458363 -0.1351898711303185 0.13185286751536071 -0.048539518618929217 0.094808312093510358 0.049363826247927262 -0.094309802912664553 0.020179290107039158 -0.085450685388750322 -0.023910953116229202 0.02075158058576388 0.15503908372842348 0.091614757718578466 -0.016404517094294229 0.06100744111197335 -0.036832381211794343 0.13080830591566422 0.040808308124542239 0.1852931544184685 0.21161128382933769 -0.008109681372714065 -0.03633454663412912 0.0030360759846095385 0.024292583847945595 0.18112648675839108 0.063895628599607707 0.11467316704136986 0.0730908623108497 -0.014415937106983336 0.045197134323120121
leaf_weight=325 24 29 61 1932 85 730 762 610 139 127 292 52 62 30 35 117 34 34 24 95 3399 35 116 53 24 437 28 26 204 2500
leaf_count=325 24 29 61 1932 85 730 762 610 139 127 292 52 62 30 35 117 34 34 24 95 3399 35 116 53 24 437 28 26 204 2500
internal_value=0 0.0223625 0.0395028 -0.0686185 -0.0062698 0.0356488 -0.107729 0.0365218 0.0219963 0.0359805 0.0404457 0.0433528 0.0157753 0.0907648 0.0706307 0.00427891 0.0432389 -0.0469943 0.0898297 0.180424 -0.00877978 0.0398593 0.0430116 0.0693732 0.109869 0.0406178 0.0243264 -0.00742698 0.0439269 0.0406997
internal_weight=0 9368 5860 3053 3508 5704 1087 5675 1207 1068 4468 3997 471 218 166 409 915 1966 136 156 3423 881 846 112 59 3779 638 153 3141 2704
internal_count=12421 9368 5860 3053 3508 5704 1087 5675 1207 1068 4468 3997 471 218 166 409 915 1966 136 156 3423 881 846 112 59 3779 638 153 3141 2704
is_linear=0
shrinkage=0.1


Tree=2
num_leaves=31
num_cat=0
split_feature=12 12 8 12 8 8 12 19 13 8 7 13 11 3 0 11 8 8 8 13 4 8 11 11 0 8 8 8 8 1
split_gain=1543.85 372.398 257.797 209.143 73.4471 70.3274 37.1737 25.1581 24.0366 21.6051 20.9742 31.732 34.98 29.637 28.4933 28.2373 20.7825 32.4649 29.1751 25.9111 23.2554 20.5189 122.769 22.0943 29.8986 25.0738 30.2934 27.1749 25.918 20.1861
threshold=12.500000000000002 17.500000000000004 1422.5000000000002 7.5000000000000009 1427.5000000000002 502.50000000000006 1.0000000180025095e-35 1.0000000180025095e-35 35.272750000000009 1432.5000000000002 9.9685000000000006 28.998250000000002 29.873400000000004 76.620098500000012 32.500000000000007 28.680350000000001 1385.0000000000002 1362.5000000000002 1417.5000000000002 46.686050000000002 22.861545500000002 1047.5000000000002 44.402250000000009 67.386500000000026 36.500000000000007 1325.0000000000002 1287.5000000000002 1067.5000000000002 1347.5000000000002 4.3500000000000005
decision_type=2 2 2 2 2 2 2 2 2 2 2 2 2 2 2 2 2 2 2 2 2 2 2 2 2 2 2 2 2 2
left_child=3 4 5 6 -2 -3 -1 16 10 -5 11 12 -9 14 -14 -12 17 21 19 -18 -19 22 29 24 -23 26 27 -25 -27 -7
right_child=1 2 -4 9 -6 7 -8 8 -10 -11 15 -13 13 -15 -16 -17 18 20 -20 -21 -22 23 -24 25 -26 28 -28 -29 -30 -31
leaf_value=-0.12527252435684205 -0.0075353257533051585 -0.10350342385078733 0.16238132915340175 -0.043685566687929459 0.10498849618232858 -0.011578781417635985 -0.084878822230291501 0.049949773202031297 0.019545154937229824 0.036727479100227355 0.17088576417702894 0.13937541120327437 -0.052991835236549378 -0.10359043325438644 0.10304937985810368 0.063588885016584509 0.00721567290613628 0.054370345427116877 0.077924747363879138 -0.080321256110542694 0.1406927015632391 0.022393072414341159 -0.056816471940246076 0.09499455765708463 0.055083423808571841 -0.042812757194042206 0.092300582314665258 0.037205042535988962 0.049778823175672761 0.039651128264901407
leaf_weight=325 3449 38 156 1932 59 86 762 161 229 34 26 26 25 33 22 433 307 142 52 38 40 1672 181 91 336 62 148 769 59 728
leaf_count=325 3449 38 156 1932 59 86 762 161 229 34 26 26 25 33 22 433 307 142 52 38 40 1672 181 91 336 62 148 769 59 728
internal_value=0 0.0201263 0.0355526 -0.0617566 -0.00564282 0.0320839 -0.0969561 0.0329932 0.047793 -0.0422949 0.0567032 0.0344175 0.0230943 -0.0309524 0.0200487 0.0696667 0.0299931 0.0320079 0.00809847 -0.00242608 0.0733423 0.0301873 0.0176748 0.034156 0.0278632 0.0453483 0.0505116 0.04332 0.0023352 0.0342386
internal_weight=0 9368 5860 3053 3508 5704 1087 5666 955 1966 726 267 241 80 47 459 4711 4314 397 345 182 4132 995 3137 2008 1129 1008 860 121 814
internal_count=12421 9368 5860 3053 3508 5704 1087 5666 955 1966 726 267 241 80 47 459 4711 4314 397 345 182 4132 995 3137 2008 1129 1008 860 121 814
is_linear=0
shrinkage=0.1


Tree=3
num_leaves=31
num_cat=0
split_feature=12 12 8 12 8 8 12 8 8 11 8 8 8 8 8 8 0 8 21 11 30 2 8 13 13 1 7 7 15 10
split_gain=1250.51 301.642 208.816 169.406 60.5164 57.2906 30.1107 21.9761 129.013 41.0719 22.3218 30.6364 24.6345 51.5278 21.8011 21.1432 21.609 19.1411 18.9852 29.3364 27.1733 20.187 21.1422 19.6648 19.3932 21.7449 19.1441 19.4884 18.5997 20.2523
threshold=12.500000000000002 17.500000000000004 1422.5000000000002 7.5000000000000009 1422.5000000000002 497.50000000000006 1.0000000180025095e-35 1047.5000000000002 972.50000000000011 48.773150000000008 1392.5000000000002 1417.5000000000002 1347.5000000000002 1342.5000000000002 1037.5000000000002 942.50000000000011 33.500000000000007 1427.5000000000002 1.0000000180025095e-35 89.762850000000014 1.0000000180025095e-35 23.352636000000004 1325.0000000000002 19.768000000000004 31.813600000000005 4.6500000000000012 23.743200000000005 19.335650000000005 4.5000000000000009 39.500000000000007
decision_type=2 2 2 2 2 2 2 2 2 2 2 2 2 2 2 2 2 2 2 2 2 2 2 2 2 2 2 2 2 2
left_child=3 4 5 6 -2 -3 -1 8 15 -10 12 28 13 18 -11 16 -7 -4 21 20 -20 -9 26 -22 -25 -26 27 -23 29 -12
right_child=1 2 17 -5 -6 7 -8 10 9 14 11 -13 -14 -15 -16 -17 -18 -19 19 -21 23 22 -24 24 25 -27 -28 -29 -30 -31
leaf_value=-0.11274527311325074 -0.007148264059886715 -0.11132054698878323 0.10242944545433171 -0.03806541439293603 0.078270530350068035 0.043061583979886131 -0.076390940514136488 0.032611254298782373 -0.0030891511851633101 -0.11778719834983349 0.0012962328021725018 0.074718597531318667 0.055540143676626033 -0.063085628247686806 -0.039694268182969429 0.11318636597955929 0.0090425281600559262 0.17421201731029312 -0.0041734487429643287 0.075908655381283247 -0.039512229263782506 0.056384513432758424 -0.019184569151777971 0.10846362764185125 -0.053731417797860649 0.090176205833752965 0.0048841475463304368 0.11317333753619876 -0.048069306603376417 0.095873058795928959
leaf_weight=325 3423 29 61 1966 85 621 762 2312 142 72 240 62 512 56 71 34 267 95 390 74 20 442 38 55 21 21 61 70 69 25
leaf_count=325 3423 29 61 1966 85 621 762 2312 142 72 240 62 512 56 71 34 267 95 390 74 20 442 38 55 21 21 61 70 69 25
internal_value=0 0.0181137 0.0319973 -0.055581 -0.00507854 0.0288755 -0.0872605 0.0295919 0.0176191 -0.0411847 0.0328263 0.0101608 0.0350305 0.0320808 -0.0790138 0.035796 0.0328329 0.146143 0.0336017 0.0170916 0.00850681 0.0368834 0.0530491 0.0507743 0.0693901 0.0182224 0.0578395 0.0641486 -0.00182293 0.0102186
internal_weight=0 9368 5860 3053 3508 5704 1087 5675 1207 285 4468 396 4072 3560 143 922 888 156 3504 581 507 2923 611 117 97 42 573 512 334 265
internal_count=12421 9368 5860 3053 3508 5704 1087 5675 1207 285 4468 396 4072 3560 143 922 888 156 3504 581 507 2923 611 117 97 42 573 512 334 265
is_linear=0
shrinkage=0.1


Tree=4
num_leaves=31
num_cat=0
split_feature=12 12 8 12 8 8 8 8 11 12 8 9 8 8 8 9 14 8 8 8 8 8 8 3 7 0 22 8 2 11
split_gain=1012.92 244.33 169.141 137.219 49.9488 48.702 31.3763 27.018 95.3837 24.3897 21.8785 19.258 17.7561 17.6195 18.5732 18.3245 22.3038 17.5001 15.5043 14.3044 35.2269 28.4648 26.2313 24.664 23.613 26.2693 23.2927 22.6154 23.3204 21.0206
threshold=12.500000000000002 17.500000000000004 1422.5000000000002 7.5000000000000009 1427.5000000000002 507.50000000000006 532.50000000000011 1047.5000000000002 53.315550000000009 1.0000000180025095e-35 1037.5000000000002 8.5000000000000018 507.50000000000006 1402.5000000000002 1417.5000000000002 16.500000000000004 1763.6109000000004 1432.5000000000002 1427.5000000000002 1292.5000000000002 1265.0000000000002 1242.5000000000002 1212.5000000000002 72.778362500000014 9.6658500000000007 36.500000000000007 1.0000000180025095e-35 1252.5000000000002 21.149619000000005 71.035550000000015
decision_type=2 2 2 2 2 2 2 2 2 2 2 2 2 2 2 2 2 2 2 2 2 2 2 2 2 2 2 2 2 2
left_child=3 4 5 9 12 -3 -7 8 10 -1 -8 -9 -2 19 15 16 -15 -5 -4 20 21 22 -13 -24 -22 -26 -25 28 -23 -29
right_child=1 2 18 17 -6 6 7 11 -10 -11 -12 13 -14 14 -16 -17 -18 -19 -20 -21 24 27 23 26 25 -27 -28 29 -30 -31
leaf_value=-0.10147074460983277 -0.091845357169707625 -0.072271945029497145 0.092186503136744272 -0.035510468310204109 0.086662594847759955 0.096477675996720802 0.026262958047243185 0.036632205612512361 -0.065350690762773694 -0.068751844576024637 -0.048359200721833764 0.028253513752669098 -0.0055307343067043891 -0.089091598499904986 0.062500321685240195 0.041495122015476227 0.010530908484207957 0.036861270666122437 0.15679081860341526 0.037678822209599658 -0.12051143759772892 0.16091921398272882 -0.11479964450001717 0.0156303662625519 0.011606158835418297 -0.090687851079048656 -0.071285683319375334 -0.0075120041767756151 0.033959053132845009 0.10278175473213197
leaf_weight=325 24 50 61 1932 59 64 942 2063 139 762 41 1000 3425 55 29 30 38 34 95 690 21 39 20 185 132 31 37 48 23 27
leaf_count=325 24 50 61 1932 59 64 942 2063 139 762 41 1000 3425 55 29 30 38 34 95 690 21 39 20 185 132 31 37 48 23 27
internal_value=0 0.0163023 0.0287976 -0.0500229 -0.00457068 0.025988 0.0268569 0.0260598 0.0121865 -0.0785344 0.0231505 0.0295437 -0.00613136 0.0234631 -0.00949013 -0.0264635 -0.0483856 -0.0342589 0.131529 0.0256863 0.0203922 0.025876 0.0211043 -0.00843779 -0.0207068 -0.00784853 0.00114436 0.0691346 0.113821 0.0321937
internal_weight=0 9368 5860 3053 3508 5704 5654 5590 1122 1087 983 4468 3449 2405 152 123 93 1966 156 2253 1563 1379 1242 242 184 163 222 137 62 75
internal_count=12421 9368 5860 3053 3508 5704 5654 5590 1122 1087 983 4468 3449 2405 152 123 93 1966 156 2253 1563 1379 1242 242 184 163 222 137 62 75
is_linear=0
shrinkage=0.1


Tree=5
num_leaves=31
num_cat=0
split_feature=12 12 8 12 8 8 12 19 2 13 9 30 7 13 2 10 11 1 3 9 8 3 8 5 5 3 20 0 8 0
split_gain=820.463 197.908 137.004 111.147 41.1266 39.4592 19.7556 18.9114 18.6021 18.0335 17.2616 18.6074 18.39 28.0616 28.5123 19.6453 18.4793 17.4719 17.1123 16.158 14.6608 20.4246 14.2709 14.185 18.2791 32.8215 16.5571 22.0322 20.5227 19.2273
threshold=12.500000000000002 17.500000000000004 1422.5000000000002 7.5000000000000009 1422.5000000000002 497.50000000000006 1.0000000180025095e-35 1.0000000180025095e-35 11.001257500000003 35.272750000000009 2.5000000000000004 1.0000000180025095e-35 9.9685000000000006 28.998250000000002 13.045086500000002 5.5000000000000009 37.090300000000006 4.7500000000000009 76.30218600000002 10.500000000000002 1112.5000000000002 75.885287000000019 507.50000000000006 85.46777950000002 80.344916500000025 80.317088500000011 1.0000000180025095e-35 26.500000000000004 1385.0000000000002 36.500000000000007
decision_type=2 2 2 2 2 2 2 2 2 2 2 2 2 2 2 2 2 2 2 2 2 2 2 2 2 2 2 2 2 2
left_child=3 4 5 6 22 -3 -1 8 18 10 11 -9 13 14 -12 -14 17 -16 -7 -19 21 -11 -2 24 -10 -26 28 -28 29 -27
right_child=1 2 -4 -5 -6 7 -8 9 23 20 12 -13 15 -15 16 -17 -18 19 -20 -21 -22 -23 -24 -25 25 26 27 -29 -30 -31
leaf_value=-0.091323667764663705 -0.082660818099975594 -0.092961297207511964 0.11837598458887676 -0.030832985652911944 0.064597250643898471 0.038101791984894696 -0.061876661520148202 0.10095245802915226 0.020864671169616867 -0.090362714128247631 -0.080955824436563448 0.012546645896509291 -0.01081595904297299 0.1283324883878231 0.061773356893560394 0.059630698752575373 -0.05261718980197249 -0.055738488957285885 -0.048172252887571362 0.052805959681669873 0.028084002141135208 0.023121158863816944 -0.0052772805739164565 -0.016979845753974387 0.1215998326630696 0.020705307973548772 0.14414303477468163 0.033305178265622321 -0.052166803693398836 0.082508391459457209
leaf_weight=325 24 29 156 1966 85 34 762 93 4020 29 33 32 45 20 91 329 29 32 71 24 165 35 3399 90 46 288 29 47 32 61
leaf_count=325 24 29 156 1966 85 34 762 93 4020 29 33 32 45 20 91 329 29 32 71 24 165 35 3399 90 46 288 29 47 32 61
internal_value=0 0.0146721 0.0259178 -0.0450206 -0.00411362 0.0233892 -0.070681 0.0239837 0.0213838 0.0368012 0.0445002 0.0783206 0.0374893 0.0151716 0.0043428 0.0511545 0.0203363 0.0347285 -0.0202359 -0.00921944 0.0123257 -0.0283012 -0.00581985 0.0223312 0.0231134 0.0410853 0.032981 0.0755986 0.0244798 0.0315076
internal_weight=0 9368 5860 3053 3508 5704 1087 5675 4718 957 728 125 603 229 209 374 176 147 105 56 229 64 3423 4613 4523 503 457 76 381 349
internal_count=12421 9368 5860 3053 3508 5704 1087 5675 4718 957 728 125 603 229 209 374 176 147 105 56 229 64 3423 4613 4523 503 457 76 381 349
is_linear=0
shrinkage=0.1


Tree=6
num_leaves=31
num_cat=0
split_feature=12 12 8 12 8 8 8 8 8 11 1 1 7 7 0 12 8 8 8 14 8 2 13 11 14 11 5 1 14 8
split_gain=664.575 160.305 110.973 90.0293 33.9706 33.782 25.1221 21.2426 77.8313 30.6449 19.7692 21.6036 43.8973 18.6886 16.7144 16.0021 15.8691 30.8558 22.0336 22.7348 19.9033 18.6398 18.5835 15.7886 30.6058 33.9622 14.8601 16.5615 14.7129 14.1751
threshold=12.500000000000002 17.500000000000004 1422.5000000000002 7.5000000000000009 1427.5000000000002 507.50000000000006 532.50000000000011 1047.5000000000002 972.50000000000011 27.977150000000005 4.9500000000000011 4.2500000000000009 7.820450000000001 9.012450000000003 33.500000000000007 1.0000000180025095e-35 1385.0000000000002 1362.5000000000002 1367.5000000000002 819.13476000000003 1417.5000000000002 23.370519000000005 36.116350000000004 95.780600000000007 2196.2567200000008 62.887950000000011 72.848752000000005 4.7500000000000009 58.069480000000006 1432.5000000000002
decision_type=2 2 2 2 2 2 2 2 2 2 2 2 2 2 2 2 2 2 2 2 2 2 2 2 2 2 2 2 2 2
left_child=3 4 5 15 -2 -3 -7 8 10 -10 11 12 -8 -12 26 -1 17 -9 -19 -20 22 23 -18 24 25 -21 27 -13 -16 -5
right_child=1 2 -4 29 -6 6 7 16 9 -11 13 14 -14 -15 28 -17 20 18 19 21 -22 -23 -24 -25 -26 -27 -28 -29 -30 -31
leaf_value=-0.08219130039215089 -0.0049893228013676537 -0.060785973340272907 0.10653838381553307 -0.028876122637935309 0.071536606146117385 0.084070837410399696 -0.066817639966805772 0.024085358438235085 0.03741324461520986 -0.050948519272213222 -0.053523501466240797 0.13807144419235343 0.078213735576719054 0.056830703928357075 0.091831014454364784 -0.055688995871878678 0.012278026827190022 0.11957961855133853 -0.033811662197113034 0.0068604559160004826 0.059586883523321199 0.14899929038115911 -0.034889325856143592 0.11869490871516367 -0.061771123519995141 0.15616922452114523 0.038320889028306382 0.037839262653142219 0.0012659349553715224 0.03625844419002533
leaf_weight=325 3449 50 156 1932 59 64 60 3779 47 238 57 34 32 21 20 762 292 52 30 39 62 21 117 24 27 25 407 32 174 34
leaf_count=325 3449 50 156 1932 59 64 60 3779 47 238 57 34 32 21 20 762 292 52 30 39 62 21 117 24 27 25 407 32 174 34
internal_value=0 0.0132049 0.023326 -0.0405185 -0.00370226 0.0210502 0.0217739 0.0210607 0.00875922 -0.0363766 0.024128 0.0290548 -0.0163719 -0.0238128 0.0353205 -0.0636129 0.0241498 0.0261956 0.0627772 0.0449836 0.00678879 0.0623649 -0.00121483 0.0465447 0.0275161 0.0651842 0.0454585 0.089474 0.0106025 -0.0277497
internal_weight=0 9368 5860 3053 3508 5704 5654 5590 1122 285 837 759 92 78 667 1087 4468 3997 218 166 471 136 409 115 91 64 473 66 194 1966
internal_count=12421 9368 5860 3053 3508 5704 5654 5590 1122 285 837 759 92 78 667 1087 4468 3997 218 166 471 136 409 115 91 64 473 66 194 1966
is_linear=0
shrinkage=0.1


Tree=7
num_leaves=31
num_cat=0
split_feature=12 12 8 12 8 8 8 15 8 8 8 15 3 10 11 13 8 7 8 8 1 21 10 11 30 7 10 8 8 8
split_gain=538.305 129.847 92.0366 72.9237 27.9624 27.8572 17.2768 21.719 20.0693 20.8813 39.5275 14.514 17.4974 15.3295 14.2461 13.4699 33.7951 53.2217 22.0584 22.4105 16.7209 14.7882 24.246 24.0579 20.1973 18.8125 17.6212 15.8107 60.6337 22.1487
threshold=12.500000000000002 17.500000000000004 1427.5000000000002 7.5000000000000009 1422.5000000000002 502.50000000000006 1417.5000000000002 4.5000000000000009 1392.5000000000002 1347.5000000000002 1342.5000000000002 4.5000000000000009 75.802191500000006 39.500000000000007 107.20440000000001 9.414550000000002 1047.5000000000002 13.764200000000001 702.50000000000011 772.50000000000011 4.2500000000000009 1.0000000180025095e-35 41.500000000000007 87.771450000000016 1.0000000180025095e-35 17.621750000000002 19.500000000000004 1085.0000000000002 1107.5000000000002 1212.5000000000002
decision_type=2 2 2 2 2 2 2 2 2 2 2 2 2 2 2 2 2 2 2 2 2 2 2 2 2 2 2 2 2 2
left_child=3 4 5 -1 -2 -3 8 -8 9 10 15 13 -13 -10 -11 18 17 -17 20 -20 -7 27 23 24 -23 26 -26 -18 -29 -30
right_child=1 2 -4 -5 -6 6 7 -9 11 14 -12 12 -14 -15 -16 16 21 -19 19 -21 -22 22 -24 -25 25 -27 -28 28 29 -31
leaf_value=-0.057251580068476374 -0.0047389257478323947 -0.06595302969217301 0.11862029182283503 -0.024974714330229852 0.053324659431681909 -0.035837165974080563 0.088384740372907514 0.00071852289309555842 -0.0017594199751814208 0.036133451081552831 -0.064940093510917257 0.030646655105409173 -0.078794634714722644 0.080523768067359933 0.11504980692019065 0.011434288184381714 0.043717243281871453 -0.055310559288396705 0.17011959763864679 0.026791509985923768 0.037943387129511015 -0.015839808878069617 0.10424948966503143 0.055460969015181841 0.050133319199085237 0.10218324024101784 -0.044942640662193306 -0.030114397638947656 0.038269613625623859 0.018513659561240736
leaf_weight=1087 3423 38 95 1966 85 35 79 44 240 488 56 21 48 25 24 726 405 143 24 20 251 371 25 77 44 29 35 202 996 1319
leaf_count=1087 3423 38 95 1966 85 35 79 44 240 488 56 21 48 25 24 726 405 143 24 20 251 371 25 77 44 29 35 202 996 1319
internal_value=0 0.0118844 0.0209934 -0.0364667 -0.00333203 0.0193847 0.0199509 0.0570245 0.0191372 0.0206437 0.0185789 -0.00463392 -0.0454864 0.00600314 0.0398327 0.0195736 0.0181031 0.000450959 0.0390551 0.10497 0.0289143 0.0224821 0.0079111 0.00357934 -0.00476071 0.033298 0.00801106 0.0253793 0.0224287 0.0270134
internal_weight=0 9368 5860 3053 3508 5765 5727 123 5604 5270 4758 334 69 265 512 4702 4372 869 330 44 286 3503 581 556 479 108 79 2922 2517 2315
internal_count=12421 9368 5860 3053 3508 5765 5727 123 5604 5270 4758 334 69 265 512 4702 4372 869 330 44 286 3503 581 556 479 108 79 2922 2517 2315
is_linear=0
shrinkage=0.1


Tree=8
num_leaves=31
num_cat=0
split_feature=12 12 8 12 8 8 8 17 2 6 13 6 8 13 7 7 11 33 7 7 11 1 1 7 6 7 10 7 4 1
split_gain=436.027 105.176 74.5496 59.0682 23.1043 23.0314 20.1222 16.7993 19.4722 15.8261 16.8945 15.1497 14.2955 13.454 20.9191 18.7437 28.1813 22.3516 15.7485 32.4822 20.917 22.479 21.4462 37.4182 19.677 22.6557 31.8785 18.6016 18.2662 17.3132
threshold=12.500000000000002 17.500000000000004 1427.5000000000002 7.5000000000000009 1427.5000000000002 507.50000000000006 532.50000000000011 1.0000000180025095e-35 23.364576500000002 0.87681951556297111 23.192050000000005 2.5000000000000004 1182.5000000000002 62.736050000000013 22.860600000000002 25.979400000000002 67.68950000000001 1.0000000180025095e-35 10.133700000000003 10.228250000000001 25.893800000000002 4.9500000000000011 4.2500000000000009 7.4651000000000005 1.0000000180025095e-35 8.0876500000000018 37.500000000000007 5.9560000000000004 27.003856500000001 4.6500000000000012
decision_type=2 2 2 2 2 2 2 2 2 2 2 2 2 2 2 2 2 2 2 2 2 2 2 2 2 2 2 2 2 2
left_child=3 4 5 -1 -2 -3 -7 11 12 10 -10 13 -9 14 18 -16 -17 -18 20 -20 21 22 23 -8 27 26 -26 -22 -21 -27
right_child=1 2 -4 -5 -6 6 7 8 9 -11 -12 -13 -14 -15 15 16 17 -19 19 28 24 -23 -24 -25 25 29 -28 -29 -30 -31
leaf_value=-0.051526422566959586 -0.0040602638613282515 -0.050128425687551506 0.10675826376990268 -0.022477243696685242 0.059050481501272171 0.073794742421887355 -0.065644751547598371 -0.014804488261036364 0.1428927739771704 0.014972189550890642 0.032625144991007722 0.078999232483464632 0.011740755064869827 0.052413242515176539 -0.018671619351263401 0.11867733076214791 0.077866150024864411 -0.010169479506539889 0.11571345764857073 0.022145343356562069 0.051869651302695274 -0.040981649718386061 0.038733043577991622 0.095743007063865668 0.015303029292405432 0.015771591706344717 0.11104917711601026 -0.038917338859006674 0.064687876715546572 -0.040890096567038986
leaf_weight=1087 3449 50 95 1966 59 64 51 389 24 119 33 43 424 120 270 26 36 145 39 2601 26 47 476 20 229 104 41 171 105 112
leaf_count=1087 3449 50 95 1966 59 64 51 389 24 119 33 43 424 120 270 26 36 145 39 2601 26 47 476 20 229 104 41 171 105 112
internal_value=0 0.0106959 0.0188941 -0.03282 -0.00299882 0.0174462 0.0180374 0.0174059 0.00556813 0.0357258 0.0790536 0.0199172 -0.000960475 0.0193672 0.0184858 -0.00131472 0.0213247 0.00734037 0.0208341 0.025102 0.0116597 0.0253834 0.0310858 -0.0201834 -0.00027568 0.0105308 0.0298423 -0.0269353 0.0237961 -0.0136085
internal_weight=0 9368 5860 3053 3508 5765 5715 5651 989 176 57 4662 813 4619 4499 477 207 181 4022 2745 1277 594 547 71 683 486 270 197 2706 216
internal_count=12421 9368 5860 3053 3508 5765 5715 5651 989 176 57 4662 813 4619 4499 477 207 181 4022 2745 1277 594 547 71 683 486 270 197 2706 216
is_linear=0
shrinkage=0.1


Tree=9
num_leaves=31
num_cat=0
split_feature=12 12 8 12 8 8 8 8 8 13 12 2 7 8 4 7 2 13 10 31 14 11 7 1 11 8 3 1 10 2
split_gain=353.182 85.1927 63.284 47.8453 19.0971 19.0113 16.312 16.7236 31.7827 13.5617 12.9617 12.7999 12.4816 24.0128 21.2221 20.7663 17.55 16.5437 14.6066 13.036 13.257 17.3007 13.1992 21.0932 20.3187 21.2329 22.7146 26.2581 18.7421 24.7606
threshold=12.500000000000002 17.500000000000004 1417.5000000000002 7.5000000000000009 497.50000000000006 1422.5000000000002 1392.5000000000002 1347.5000000000002 1342.5000000000002 46.686050000000002 1.0000000180025095e-35 11.001257500000003 22.860600000000002 1047.5000000000002 27.248297000000004 20.679250000000007 26.491528000000006 64.555600000000013 4.5000000000000009 1.0000000180025095e-35 1975.3757800000001 50.336200000000012 17.880250000000004 4.6500000000000012 67.251500000000007 1042.5000000000002 73.899970500000009 4.7500000000000009 17.500000000000004 11.013336500000003
decision_type=2 2 2 2 2 2 2 2 2 2 2 2 2 2 2 2 2 2 2 2 2 2 2 2 2 2 2 2 2 2
left_child=3 5 4 10 -3 -2 7 8 11 -8 -1 -6 15 -14 17 19 -17 18 -15 20 21 -13 24 -24 -21 -26 -27 -28 -25 -30
right_child=1 2 -4 -5 6 -7 9 -9 -10 -11 -12 12 13 14 -16 16 -18 -19 -20 22 -22 -23 23 28 25 26 27 -29 29 -31
leaf_value=-0.063094371557235726 -0.0038590062197418618 -0.065978423685863097 0.069871893617401426 -0.020229519729332911 -0.016880747535799306 0.044017591441378873 0.0015905295179723059 0.033910345435288036 -0.060000469801681382 -0.059183077265818923 -0.039242294243001567 0.012322605550289155 -0.098346187336289359 0.073042896903794383 -0.094359207674860959 0.036765035815094708 0.11954848440042859 0.07145026235318766 -0.00067782515370634665 0.016212637098331859 0.034081345517188312 -0.11138861506031111 -0.023662778259607255 0.056818932245175049 -0.056006735441801341 0.0065286190349322093 0.076247862623339269 0.0201539111575742 0.099794021958396553 -0.017296562024731506
leaf_weight=325 3423 29 218 1966 117 85 292 512 56 42 762 20 23 29 20 219 29 41 367 2853 24 26 193 90 23 130 224 133 21 129
leaf_count=325 3423 29 218 1966 117 85 292 512 56 42 762 20 23 29 20 219 29 41 367 2853 24 26 193 90 23 130 224 133 21 129
internal_value=0 0.00962634 0.0170047 -0.029538 0.014962 -0.00269894 0.0153801 0.0167361 0.0148915 -0.00605166 -0.0463738 0.0157818 0.0166136 0.00135374 0.00637146 0.0183941 0.0464454 0.0109816 0.00472091 0.0165946 -0.0261671 -0.0576011 0.0173831 0.000949667 0.019499 0.0378834 0.0423177 0.0553501 0.0207422 -0.00090388
internal_weight=0 9368 5860 3053 5642 3508 5613 5279 4767 334 1087 4711 4594 480 457 4114 248 437 396 3866 70 46 3796 433 3363 510 487 357 240 150
internal_count=12421 9368 5860 3053 5642 3508 5613 5279 4767 334 1087 4711 4594 480 457 4114 248 437 396 3866 70 46 3796 433 3363 510 487 357 240 150
is_linear=0
shrinkage=0.1


Tree=10
num_leaves=31
num_cat=0
split_feature=12 12 8 12 8 8 8 8 8 11 7 11 3 1 3 0 13 22 9 9 6 7 18 7 24 5 3 7 7 7
split_gain=286.078 69.0061 52.581 38.7547 15.85 16.3209 15.7143 13.5951 51.1607 20.5037 19.5964 28.0385 18.9614 19.483 17.9236 17.2493 16.1816 14.7874 20.5461 12.4206 12.7413 17.6895 39.0142 16.8716 15.2861 19.5126 24.3275 15.2547 22.3871 24.1739
threshold=12.500000000000002 17.500000000000004 1427.5000000000002 7.5000000000000009 507.50000000000006 532.50000000000011 1427.5000000000002 1047.5000000000002 972.50000000000011 27.977150000000005 9.0890500000000021 27.072100000000002 72.794819500000003 4.9500000000000011 72.776134000000013 38.500000000000007 14.750500000000002 1.0000000180025095e-35 7.5000000000000009 7.5000000000000009 0.87681951556297111 13.558800000000002 1.0000000180025095e-35 17.218800000000005 1.0000000180025095e-35 73.918474500000016 73.169541500000022 6.6355500000000012 9.6658500000000007 11.378250000000001
decision_type=2 2 2 2 2 2 2 2 2 2 2 2 2 2 2 2 2 2 2 2 2 2 2 2 2 2 2 2 2 2
left_child=3 6 4 -1 -3 -6 -2 8 10 -10 12 16 14 15 -7 17 -12 -14 -19 -9 21 27 24 -24 25 26 -23 -21 -29 -30
right_child=1 2 -4 -5 5 7 -8 19 9 -11 11 -13 13 -15 -16 -17 -18 18 -20 20 -22 22 23 -25 -26 -27 -28 28 29 -31
leaf_value=-0.041736402737513091 -0.0033044257417005813 -0.041969763964414597 0.089095249630902942 -0.018206570286110484 0.064794004894793034 0.0076575818838495197 0.048743671077792927 0.022855074072100183 0.027919043822491427 -0.044358106018161453 0.050956838062176338 0.019590651938039015 0.0057636340159354293 -0.054000589085949791 0.11188234140475591 -0.068970489005247756 0.16148697093681053 0.117932752892375 0.013638204840176247 0.044057419597122234 0.016637729943882549 0.023324359487742186 0.14111761876171636 0.034028868753063893 -0.019967963776277926 0.034657831527689038 -0.11150703248770343 -0.06972530818024239 0.035231557313264127 -0.032445871014095531
leaf_weight=1087 3449 50 95 1966 64 33 59 1815 47 238 26 117 439 54 33 27 27 30 51 38 1904 32 31 28 167 188 23 77 84 142
leaf_count=1087 3449 50 95 1966 64 33 59 1815 47 238 26 117 439 54 33 27 27 30 51 38 1904 32 31 28 167 188 23 77 84 142
internal_value=0 0.00866371 0.0153042 -0.0265842 0.0140882 0.0145787 -0.00242904 0.01401 0.00415548 -0.0324387 0.0166159 0.0469243 0.00889108 0.00330371 0.05977 0.00896081 0.107265 0.0130072 0.0522658 0.0164513 0.0121687 0.00166378 0.0142648 0.0902958 0.00332376 0.0193308 -0.0330597 -0.0156672 -0.0231575 -0.00729143
internal_weight=0 9368 5860 3053 5765 5715 3508 5651 1122 285 837 170 667 601 66 547 53 520 81 4529 2714 810 469 59 410 243 55 341 303 226
internal_count=12421 9368 5860 3053 5765 5715 3508 5651 1122 285 837 170 667 601 66 547 53 520 81 4529 2714 810 469 59 410 243 55 341 303 226
is_linear=0
shrinkage=0.1


Tree=11
num_leaves=31
num_cat=0
split_feature=12 8 12 12 19 13 9 7 10 2 8 8 8 4 8 8 5 3 0 8 2 3 1 8 12 15 9 8 8 8
split_gain=231.723 56.444 51.3082 31.3913 14.1643 14.5883 18.0125 16.9531 17.6113 16.0538 12.2102 28.7109 18.637 12.0615 12.0348 11.8777 11.5409 16.8511 14.0362 15.1899 11.2252 13.8418 11.2096 11.0871 10.499 10.4979 10.7287 10.5673 10.8002 10.8064
threshold=12.500000000000002 1422.5000000000002 17.500000000000004 7.5000000000000009 1.0000000180025095e-35 33.286600000000007 2.5000000000000004 9.9685000000000006 5.5000000000000009 13.045086500000002 1392.5000000000002 1367.5000000000002 1352.5000000000002 23.419113500000005 507.50000000000006 1427.5000000000002 85.46777950000002 85.330386000000018 25.500000000000004 1137.5000000000002 11.001257500000003 76.30218600000002 4.7500000000000009 497.50000000000006 1.0000000180025095e-35 3.5000000000000004 8.5000000000000018 1112.5000000000002 1152.5000000000002 1347.5000000000002
decision_type=2 2 2 2 2 2 2 2 2 2 2 2 2 2 2 2 2 2 2 2 2 2 2 2 2 2 2 2 2 2
left_child=3 2 10 24 16 6 -6 9 -9 -8 11 12 14 -11 -2 -5 17 20 -19 -20 21 -4 -18 -22 -1 26 -7 -27 -29 -30
right_child=1 -3 4 15 5 25 7 8 -10 13 -12 -13 -14 -15 -16 -17 22 18 19 -21 23 -23 -24 -25 -26 27 -28 28 29 -31
leaf_value=-0.052611291408538818 -0.072299540291229883 0.055565744743554926 0.030111766058732482 -0.017654368326495896 0.067742449479798475 -0.09045671267168863 -0.057177694101591375 -0.024478591806613482 0.047096538788895928 0.031729862125206537 -0.024893249670664471 0.043625268847854053 -0.039006724847969437 -0.022722432812896827 -0.0011922437740290203 0.03124340994685304 -0.056227470890564082 -0.014262390960092573 0.141223636843885 0.040592661793343726 -0.054387849110823422 -0.047481079609461241 0.014992049374641518 0.011104704265809432 -0.031144424342107898 -0.022768082040972238 -0.00096614078895465756 0.087342206634581088 -0.0025370734184980391 0.054786837150399781
leaf_weight=325 24 241 34 1915 114 21 37 39 290 131 240 135 141 59 2883 51 51 22 24 40 26 71 39 4437 762 58 37 25 100 49
leaf_count=325 24 241 34 1915 114 21 37 39 290 131 240 135 141 59 2883 51 51 22 24 40 26 71 39 4437 762 58 37 25 100 49
internal_value=0 0.00779733 0.006536 -0.0239258 0.0123442 0.0234218 0.0315319 0.0241075 0.0386119 0.00308552 -0.00314267 -0.00150266 -0.00350144 0.014821 -0.0017793 -0.0163859 0.0101026 0.0107884 0.054643 0.0783293 0.00996281 -0.0223558 -0.0253657 0.0107232 -0.0375628 0.00468454 -0.0333679 0.0141976 0.0265196 0.0163144
internal_weight=0 9368 9127 3053 5704 960 670 556 329 227 3423 3183 3048 190 2907 1966 4744 4654 86 64 4568 105 90 4463 1087 290 58 232 174 149
internal_count=12421 9368 9127 3053 5704 960 670 556 329 227 3423 3183 3048 190 2907 1966 4744 4654 86 64 4568 105 90 4463 1087 290 58 232 174 149
is_linear=0
shrinkage=0.1


Tree=12
num_leaves=31
num_cat=0
split_feature=12 12 8 12 8 8 8 14 10 14 0 15 5 10 13 11 8 14 8 13 13 15 10 8 8 7 5 7 4 13
split_gain=187.695 45.7458 38.1934 25.4269 13.6529 13.4369 24.364 19.6743 21.846 33.108 18.1089 11.5713 14.345 12.2027 12.4612 11.5167 10.8948 10.4848 11.3415 9.82791 23.4507 9.90938 10.668 9.75904 9.66169 9.63629 9.48531 9.46389 19.0057 17.7747
threshold=12.500000000000002 17.500000000000004 1417.5000000000002 7.5000000000000009 1392.5000000000002 1362.5000000000002 1372.5000000000002 614.15930000000014 25.500000000000004 1763.6109000000004 31.500000000000004 4.5000000000000009 75.876201500000022 39.500000000000007 17.046850000000003 82.848300000000009 497.50000000000006 766.97586000000013 1432.5000000000002 36.116350000000004 31.678550000000005 3.5000000000000004 20.500000000000004 1427.5000000000002 1432.5000000000002 13.447400000000002 77.666473000000011 22.860600000000002 27.248297000000004 64.555600000000013
decision_type=2 2 2 2 2 2 2 2 2 2 2 2 2 2 2 2 2 2 2 2 2 2 2 2 2 2 2 2 2 2
left_child=3 23 4 -1 5 16 25 -8 9 -9 -10 13 -13 14 -6 19 -3 -4 -19 20 21 22 -16 -2 -5 -7 -14 -18 29 -29
right_child=1 2 17 24 11 6 7 8 10 -11 -12 12 26 -15 15 -17 27 18 -20 -21 -22 -23 -24 -25 -26 -27 -28 28 -30 -31
leaf_value=-0.033806485077494751 -0.0027039792465365221 -0.050260163586715173 0.10735841643425725 -0.015677291907632326 0.057799279248272932 0.11837465058673512 -0.063060753175924564 0.1151047779741336 0.034196299138037782 -0.0030227639671901001 -0.064087962318916586 0.021394328095696191 -0.12643174486500877 0.067212249696254736 -0.060809137150645259 0.045455800209726609 0.012705267066638279 0.03070236760335909 0.088313359022140506 -0.071932986992246969 0.063572254311293361 -0.060065468317932559 0.030280443115366831 0.038312732466196611 0.038097062706947328 0.051294058875837295 -0.036071308415669662 -0.0036155817907426386 -0.092466888983141302 0.060366602199307333
leaf_weight=1087 3449 29 31 1932 27 33 29 49 38 46 37 22 21 25 20 28 4461 142 45 34 32 63 36 59 34 61 26 455 22 48
leaf_count=1087 3449 29 31 1932 27 33 29 49 38 46 37 22 21 25 20 28 4461 142 45 34 32 63 36 59 34 61 26 455 22 48
internal_value=0 0.0070176 0.0124243 -0.0215332 0.0108374 0.0120713 0.0328868 0.013068 0.0260547 0.0579062 -0.0142906 -0.0087731 -0.0452499 0.000724636 -0.00620116 -0.0143139 0.0108552 0.0534952 0.044566 -0.0233601 -0.0124232 -0.0328589 -0.00225155 -0.00201413 -0.0147473 0.0748436 -0.0764451 0.0112107 -0.00148907 0.00249007
internal_weight=0 9368 5860 3053 5642 5308 293 199 170 95 75 334 69 265 240 213 5015 218 187 185 151 119 56 3508 1966 94 47 4986 525 503
internal_count=12421 9368 5860 3053 5642 5308 293 199 170 95 75 334 69 265 240 213 5015 218 187 185 151 119 56 3508 1966 94 47 4986 525 503
is_linear=0
shrinkage=0.1


Tree=13
num_leaves=31
num_cat=0
split_feature=12 8 12 12 3 0 3 5 14 5 17 1 20 7 10 15 8 8 14 8 8 11 0 9 8 11 8 8 11 9
split_gain=152.033 37.5432 33.7099 21.9923 12.4873 26.5325 17.695 16.6854 26.2356 15.5833 16.1195 15.6545 15.0651 28.7614 13.1515 17.1155 12.3375 12.1874 43.6044 13.4771 21.4353 20.2935 23.9496 19.9689 18.9642 26.8429 25.5154 40.6489 27.061 19.2615
threshold=12.500000000000002 1422.5000000000002 17.500000000000004 1.0000000180025095e-35 72.773453000000003 35.500000000000007 72.793173500000009 72.864172500000009 819.13476000000003 72.902677500000024 1.0000000180025095e-35 4.7500000000000009 1.0000000180025095e-35 14.652400000000002 24.500000000000004 3.5000000000000004 1122.5000000000002 1047.5000000000002 741.13390000000015 1072.5000000000002 1112.5000000000002 91.497050000000016 37.500000000000007 4.5000000000000009 1137.5000000000002 31.707250000000005 1167.5000000000002 1197.5000000000002 33.220000000000006 8.5000000000000018
decision_type=2 2 2 2 2 2 2 2 2 2 2 2 2 2 2 2 2 2 2 2 2 2 2 2 2 2 2 2 2 2
left_child=3 2 -2 -1 5 14 7 8 -6 10 12 -12 13 -8 -4 -16 -14 18 -11 21 -21 22 23 -19 25 -22 -26 28 -28 -27
right_child=1 -3 4 -5 6 -7 9 -9 -10 17 11 -13 16 -15 15 -17 -18 19 -20 20 24 -23 -24 -25 26 29 27 -29 -30 -31
leaf_value=-0.04396951496601105 -0.0025580002138080424 0.045273918213315029 -0.0044853148173611126 -0.016450405317492502 0.069511757947264177 0.085110898758284759 0.034469382116194103 0.090679284198209642 -0.020750673049921866 0.011917196242884679 -0.017669488434438354 -0.13439670674502852 -0.11265735891647638 -0.063802567227051049 -0.13554468202590941 -0.02433626401808954 -0.0052663272165733837 -0.044425477769146578 -0.037085207444474556 -0.009599170658648723 -0.057559646981266838 0.11589441280812025 0.099572139154923592 0.027529216120533953 -0.016513215978021075 0.078253612349120288 -0.037109312590430765 0.010469489114334986 0.056961367248119427 0.023190923400775151
leaf_weight=325 3423 241 53 2728 62 20 126 50 67 849 27 20 20 39 25 31 23 47 231 420 26 27 38 215 283 120 34 2412 304 135
leaf_count=325 3423 241 53 2728 62 20 126 50 67 849 27 20 20 39 25 31 23 47 231 420 26 27 38 215 283 120 34 2412 304 135
internal_value=0 0.00631584 0.00528715 -0.0193799 0.00999506 -0.0207639 0.0107068 0.0416391 0.0226313 0.00968068 -0.0144488 -0.0673406 -0.00249726 0.0112415 -0.0401905 -0.0739829 -0.0552156 0.0108775 0.00143613 0.0133884 0.0116836 0.0328553 0.0253818 0.0146213 0.0143809 0.0392337 0.0120784 0.0150207 0.0474986 0.0491028
internal_weight=0 9368 9127 3053 5704 129 5575 179 129 5396 255 47 208 165 109 56 43 5141 1080 4061 3734 327 300 262 3314 281 3033 2750 338 255
internal_count=12421 9368 9127 3053 5704 129 5575 179 129 5396 255 47 208 165 109 56 43 5141 1080 4061 3734 327 300 262 3314 281 3033 2750 338 255
is_linear=0
shrinkage=0.1


Tree=14
num_leaves=31
num_cat=0
split_feature=12 8 12 12 19 11 9 1 3 8 8 1 9 8 2 10 10 7 13 14 7 11 4 30 0 11 13 4 29 7
split_gain=123.147 31.3019 28.1871 18.6674 10.7769 11.6478 20.9027 20.1532 14.8741 14.7537 14.1052 14.3919 17.5162 20.3328 16.1157 14.2408 19.0165 12.777 10.8711 13.3551 11.4016 18.9917 9.79963 12.4122 9.71463 13.3277 15.6258 9.70772 11.833 37.6457
threshold=12.500000000000002 1427.5000000000002 17.500000000000004 7.5000000000000009 1.0000000180025095e-35 78.54525000000001 2.5000000000000004 4.1500000000000012 76.971579000000006 1112.5000000000002 577.50000000000011 4.8500000000000005 16.500000000000004 1292.5000000000002 12.9810125 33.500000000000007 12.500000000000002 18.128750000000004 57.977650000000004 3024.6320000000005 21.365400000000005 82.848300000000009 22.783146500000004 1.0000000180025095e-35 35.500000000000007 29.873400000000004 24.684400000000004 23.364016000000003 1.0000000180025095e-35 11.750950000000001
decision_type=2 2 2 2 2 2 2 2 2 2 2 2 2 2 2 2 2 2 2 2 2 2 2 2 2 2 2 2 2 2
left_child=3 2 -2 -1 27 6 22 8 9 -8 -9 15 13 14 -13 16 24 -18 19 20 21 -7 23 -6 25 -12 -27 -4 -29 -30
right_child=1 -3 4 -5 5 18 7 10 -10 -11 11 12 -14 -15 -16 -17 17 -19 -20 -21 -22 -23 -24 -25 -26 26 -28 28 29 -31
leaf_value=-0.027958008515363238 -0.0022138367047618182 0.050396436607682865 0.0048142665594326601 -0.011627549927450513 0.066650432781989372 0.054390723058687786 -0.014054867171722911 -0.048957830846596224 0.0194271653551947 -0.12998678108422265 0.1393286317586899 0.076933362353593118 -0.075022424340248112 0.083370587394079751 -0.021830047568012226 0.070006963178605719 -0.006844800661260985 0.06380088262620473 0.049811832867562772 0.038115846519084541 -0.075245626525181103 -0.054147535341938863 0.10977115667154712 -0.013958789078662029 -0.0040570464517389031 -0.01767697826675747 0.081917153920978314 0.02157105022314915 0.03839258256235293 -0.03520437621060879
leaf_weight=1087 3449 154 3694 1966 72 28 23 26 33 21 22 20 25 34 95 98 147 31 30 34 41 38 31 26 21 23 50 821 126 155
leaf_count=1087 3449 154 3694 1966 72 28 23 26 33 21 22 20 25 34 95 98 147 31 30 34 41 38 31 26 21 23 50 821 126 155
internal_value=0 0.00568426 0.00493695 -0.0174419 0.00921502 0.0188339 0.0239092 0.0168022 -0.0313232 -0.069386 0.0230618 0.0263701 0.00243593 0.0154323 -0.0046538 0.036994 0.0259897 0.00545866 -0.00485054 -0.0164808 -0.0338293 -0.008101 0.060766 0.0452643 0.0574941 0.0711002 0.0505382 0.00727158 0.0155087 -0.0022036
internal_weight=0 9368 9214 3053 5765 969 798 669 77 44 592 566 174 149 115 392 294 178 171 141 107 66 129 98 116 95 73 4796 1102 281
internal_count=12421 9368 9214 3053 5765 969 798 669 77 44 592 566 174 149 115 392 294 178 171 141 107 66 129 98 116 95 73 4796 1102 281
is_linear=0
shrinkage=0.1


Tree=15
num_leaves=31
num_cat=0
split_feature=12 8 12 12 8 1 2 10 29 6 0 4 7 7 8 9 14 17 8 5 14 13 5 3 20 6 4 2 0 5
split_gain=99.7491 25.5996 22.0658 16.161 10.3958 10.095 12.9073 12.1975 19.3586 13.84 18.6604 24.0765 17.0889 23.7827 26.0546 19.4363 15.5975 14.4105 11.2193 11.1321 14.6907 10.92 10.7128 28.0103 16.6982 14.6402 15.1648 14.9837 12.2458 12.2192
threshold=12.500000000000002 1422.5000000000002 17.500000000000004 1.0000000180025095e-35 1432.5000000000002 4.3500000000000005 30.895510500000004 5.5000000000000009 1.0000000180025095e-35 1.5000000000000002 33.500000000000007 18.683931500000003 22.860600000000002 15.462300000000001 1265.0000000000002 8.5000000000000018 1302.2427600000003 1.0000000180025095e-35 1112.5000000000002 77.105596000000006 2313.8384000000005 36.622300000000003 80.344916500000025 80.317088500000011 1.0000000180025095e-35 1.5000000000000002 26.522811500000003 25.455906500000001 26.500000000000004 80.327973500000013
decision_type=2 2 2 2 2 2 2 2 2 2 2 2 2 2 2 2 2 2 2 2 2 2 2 2 2 2 2 2 2 2
left_child=3 2 -2 -1 -5 7 22 8 -4 12 11 -11 13 -9 17 -16 -12 18 -15 20 -14 -20 29 -24 25 26 27 -25 -26 -7
right_child=1 -3 5 4 -6 6 -8 9 -10 10 16 -13 19 14 15 -17 -18 -19 21 -21 -22 -23 23 24 28 -27 -28 -29 -30 -31
leaf_value=-0.036776763200759892 -0.0020808163909510915 0.037285678620407693 -0.058221036733986889 -0.013967670992544021 0.035593948530596359 0.0082021159973946784 0.070384443961083884 -0.012771036998910757 0.050095476068201521 -0.071190897618921903 0.14913089566287541 0.055849272683262834 -0.060691052584937122 0.028541960990106738 -0.066310665832880214 0.025305714213142275 0.025736779570579529 -0.0032145274337381127 0.13300331436881893 -0.086897466001766066 0.038771096603186048 0.05437263158347571 0.093445698834955696 0.0049920368931968429 0.10945852364102999 0.082107240534745732 -0.067741760990961838 0.084654159933328643 0.02493993824813515 -0.04153278022259474
leaf_weight=325 3423 241 77 2685 43 4111 35 354 21 26 21 35 33 37 39 57 20 32 38 35 27 33 50 425 30 26 27 25 40 50
leaf_count=325 3423 241 77 2685 43 4111 35 354 21 26 21 35 33 37 39 57 20 32 38 35 27 33 50 425 30 26 27 25 40 50
internal_value=0 0.00511583 0.00426638 -0.0156977 -0.0131865 0.00807537 0.00987821 -0.00174146 -0.0350104 0.0024013 0.0367671 0.001701 -0.00271595 0.00362199 0.0282115 -0.0119134 0.0889386 0.0557258 0.0731896 -0.0420779 -0.0159331 0.0964567 0.00943554 0.0216651 0.0154015 0.00903326 0.00505019 0.00941771 0.0611622 0.00760448
internal_weight=0 9368 9127 3053 2728 5704 4819 885 98 787 102 61 685 590 236 96 41 140 108 95 60 71 4784 623 573 503 477 450 70 4161
internal_count=12421 9368 9127 3053 2728 5704 4819 885 98 787 102 61 685 590 236 96 41 140 108 95 60 71 4784 623 573 503 477 450 70 4161
is_linear=0
shrinkage=0.1


Tree=16
num_leaves=31
num_cat=0
split_feature=12 8 8 12 12 3 0 3 2 8 15 8 8 8 10 2 14 0 13 4 27 10 10 13 14 8 7 8 14 13
split_gain=80.7968 22.6108 20.7236 18.8463 13.6624 9.96928 19.0799 13.3266 11.7892 10.8215 11.6318 11.1106 22.6153 11.701 19.3766 16.1009 15.0147 13.9763 11.2555 15.7873 11.3095 21.7586 15.3712 10.8886 10.655 10.4895 14.5254 10.2783 34.1304 12.8328
threshold=12.500000000000002 1432.5000000000002 502.50000000000006 17.500000000000004 7.5000000000000009 72.773453000000003 35.500000000000007 72.789207000000019 21.155244500000006 1417.5000000000002 4.5000000000000009 1385.0000000000002 1362.5000000000002 1367.5000000000002 25.500000000000004 17.445839000000003 1921.5227000000002 31.500000000000004 28.998250000000002 13.132136000000001 1.0000000180025095e-35 20.500000000000004 27.500000000000004 25.617000000000001 819.13476000000003 532.50000000000011 4.4262000000000006 1047.5000000000002 751.94668000000013 19.907900000000001
decision_type=2 2 2 2 2 2 2 2 2 2 2 2 2 2 2 2 2 2 2 2 2 2 2 2 2 2 2 2 2 2
left_child=4 2 -2 -4 -1 6 8 24 -5 11 -11 12 25 -14 17 -16 -17 -15 20 -20 21 -13 -22 -23 -7 26 -9 28 -27 -30
right_child=1 -3 3 5 -6 7 -8 9 -10 10 -12 18 13 14 15 16 -18 -19 19 -21 22 23 -24 -25 -26 27 -28 -29 29 -31
leaf_value=-0.023124510469300658 -0.057617701838413873 0.057877090535586401 -0.0013157854788542758 -0.079969091121202873 -0.0091537398594078185 0.085437297888207614 0.068256642722657745 0.015403113967063382 -0.011702982160366244 0.052468787767341207 -0.0059558528065681467 -0.045951230474042176 0.082162514036776976 0.025794116092415959 -0.061069527339628518 -0.028737583160400395 0.093796726763248447 0.1068498761082689 -0.07220951807326996 -0.0090662624978696017 0.095365281427900003 0.0076298613278638757 -0.017812973577529194 0.097278006449341772 0.019321661823644087 0.0076993660198087406 0.11261703339828687 0.0090351049317770934 0.0078716656023805794 -0.046915257128178685
leaf_weight=1087 54 79 3466 39 1966 39 21 51 72 107 50 66 51 52 34 20 20 36 52 166 30 42 20 20 65 818 22 3629 55 192
leaf_count=1087 54 79 3466 39 1966 39 21 51 72 107 50 66 51 52 34 20 20 36 52 166 30 42 20 20 65 818 22 3629 55 192
internal_value=0 0.00460425 0.00415118 0.00451236 -0.0141279 0.0080139 -0.0191517 0.00865002 -0.0356884 0.00798341 0.0338622 0.00722765 0.0085096 0.0403897 0.0272389 -0.0104754 0.0325296 0.0589533 -0.00889384 -0.024128 0.00976366 -0.00599037 0.050094 0.0365486 0.044115 0.00708513 0.0447005 0.00650015 -0.00213775 -0.0347157
internal_weight=0 9368 9289 9235 3053 5769 132 5637 111 5533 157 5376 4980 213 162 74 40 88 396 218 178 128 50 62 104 4767 73 4694 1065 247
internal_count=12421 9368 9289 9235 3053 5769 132 5637 111 5533 157 5376 4980 213 162 74 40 88 396 218 178 128 50 62 104 4767 73 4694 1065 247
is_linear=0
shrinkage=0.1


Tree=17
num_leaves=31
num_cat=0
split_feature=12 8 8 12 12 13 19 13 7 11 13 2 4 13 13 14 10 11 13 0 3 10 5 24 0 2 2 10 15 8
split_gain=65.4454 18.3148 16.7861 15.2655 11.8783 9.59803 9.10126 10.4074 12.8063 20.1108 19.098 17.8272 14.7444 17.2245 23.8264 20.0221 13.2413 23.0246 12.1224 11.0374 9.07976 12.4284 10.3804 15.5708 14.2657 18.3704 12.6853 11.9164 8.7364 9.21887
threshold=12.500000000000002 1432.5000000000002 502.50000000000006 17.500000000000004 1.0000000180025095e-35 8.299450000000002 1.0000000180025095e-35 33.286600000000007 9.9685000000000006 28.680350000000001 28.998250000000002 12.923774000000002 23.409300500000004 10.080900000000002 13.161850000000003 635.99822000000006 5.5000000000000009 51.408750000000005 18.028900000000004 32.500000000000007 78.40238650000002 27.500000000000004 73.277770500000017 1.0000000180025095e-35 30.500000000000004 18.566545000000001 22.725791500000003 29.500000000000004 3.5000000000000004 1347.5000000000002
decision_type=2 2 2 2 2 2 2 2 2 2 2 2 2 2 2 2 2 2 2 2 2 2 2 2 2 2 2 2 2 2
left_child=4 2 -2 5 -1 -4 -5 8 10 -10 11 -8 13 -13 -15 18 17 -11 -16 -17 22 -22 23 -18 25 27 -26 -24 -9 -30
right_child=1 -3 3 6 -6 -7 7 28 9 16 -12 12 -14 14 15 19 20 -19 -20 -21 21 -23 24 -25 26 -27 -28 -29 29 -31
leaf_value=-0.030786636471748355 -0.051855933417876567 0.052089383179628405 0.027746672968606691 0.0054234776333496873 -0.010562197190007507 -0.0021413806627120064 -0.072922124881898198 -0.033192257461000664 0.11918837631551119 -0.1023297066986561 0.097308488970711121 0.073169989302298247 -0.035749764783707054 -0.09391313892293035 0.12697260550090247 -0.078252551257610325 0.049367301277571218 0.045920282720842143 0.021886035909309334 0.024390913004224954 -0.03242214152180567 0.055960536604890455 0.0060083435048373084 -0.04995305927263366 0.048762089253987298 0.12170080563016968 -0.033992288240955938 0.089071479722136457 -0.0018391253182389697 0.043912648094882226
leaf_weight=325 54 79 111 4796 2728 3355 31 61 26 20 21 49 56 21 21 20 38 22 23 22 41 26 39 27 59 51 27 31 183 58
leaf_count=325 54 79 111 4796 2728 3355 31 61 26 20 21 49 56 21 21 20 38 22 23 22 41 26 39 27 59 51 27 31 183 58
internal_value=0 0.00414382 0.00373606 0.00406113 -0.0127151 -0.0011842 0.00721251 0.0160308 0.0229692 0.0340956 0.00581595 -0.00209081 0.0082666 0.0240673 0.00158109 0.0248994 0.0282887 -0.024675 0.072041 -0.0244869 0.0348506 0.00187561 0.0429731 0.00811115 0.0539201 0.0760519 0.0227811 0.0427934 0.000614722 0.00917167
internal_weight=0 9368 9289 9235 3053 3466 5769 973 671 407 264 243 212 156 107 86 381 42 44 42 339 67 272 65 207 121 86 70 302 241
internal_count=12421 9368 9289 9235 3053 3466 5769 973 671 407 264 243 212 156 107 86 381 42 44 42 339 67 272 65 207 121 86 70 302 241
is_linear=0
shrinkage=0.1


Tree=18
num_leaves=31
num_cat=0
split_feature=12 8 8 13 8 8 7 8 7 8 8 14 13 3 8 11 3 0 8 1 7 7 8 8 13 7 7 10 11 14
split_gain=53.0108 15.2168 13.5138 11.7819 20.0574 20.0318 75.4927 37.2902 27.9734 23.1769 35.258 20.1128 19.1577 19.6727 18.1817 17.9329 17.4067 18.4411 16.72 16.4581 24.4078 20.4597 15.3786 23.948 24.5522 25.4438 16.2863 17.8091 16.0591 15.2942
threshold=12.500000000000002 1427.5000000000002 502.50000000000006 9.414550000000002 702.50000000000011 1042.5000000000002 11.955300000000001 917.50000000000011 8.7702000000000009 1085.0000000000002 1107.5000000000002 2132.9040400000004 30.676850000000005 72.835453000000015 852.50000000000011 18.305200000000003 75.895903000000018 34.500000000000007 657.50000000000011 4.5500000000000007 2.2055000000000002 4.0898000000000012 1132.5000000000002 1122.5000000000002 27.959050000000005 16.060250000000003 11.053400000000002 18.500000000000004 41.909300000000009 374.03024000000005
decision_type=2 2 2 2 2 2 2 2 2 2 2 2 2 2 2 2 2 2 2 2 2 2 2 2 2 2 2 2 2 2
left_child=-1 2 -2 4 18 6 8 -8 -5 12 11 -11 16 -14 -6 -10 -7 -18 19 -4 -21 -22 23 24 25 26 -12 -28 -25 -15
right_child=1 -3 3 5 14 9 7 -9 15 10 22 -13 13 29 -16 -17 17 -19 -20 20 21 -23 -24 28 -26 -27 27 -29 -30 -31
leaf_value=-0.011443628959877548 -0.046670336652271174 0.034904083416059418 -0.017824486816922825 -0.0096184594841788023 0.11463822296967632 0.028796687850664405 0.049192472984050883 -0.071259516887407989 0.087768252079303444 -0.013235611860993608 -0.03269821392564938 -0.065438488163430286 -0.033252928374956053 -0.022496298442204153 0.014741100583757674 0.016554830818483728 -0.025003220066798861 0.036631931038573387 -0.031213905378244818 0.097911178515009259 -0.0084197958465665589 0.051949003222398461 0.0029949022989579493 -0.0043861519520145822 0.032066694076198179 -0.077265705259654816 0.1062243185043335 -0.0030319877170227674 0.070824358739401599 0.051171633129368621
leaf_weight=3053 54 154 90 686 38 203 29 226 39 290 58 99 36 31 35 379 201 64 80 46 128 100 5532 37 185 54 25 37 122 310
leaf_count=3053 54 154 90 686 38 203 29 226 39 290 58 99 36 31 35 379 201 64 80 46 128 100 5532 37 185 54 25 37 122 310
internal_value=0 0.00372944 0.0032084 0.00350244 0.0181663 0.00262529 -0.0085203 -0.0575611 0.00280705 0.00470476 0.00266132 -0.0265212 0.020276 0.0370523 0.0667423 0.0231991 0.0067618 -0.0101177 0.0101796 0.0192771 0.0314638 0.0180577 0.00453769 0.0210139 0.00670451 -0.020261 0.00539107 0.041023 0.0533225 0.0444745
internal_weight=0 9368 9214 9160 517 8643 1359 255 1104 7284 6439 389 845 377 73 418 468 265 444 364 274 228 6050 518 359 174 120 62 159 341
internal_count=12421 9368 9214 9160 517 8643 1359 255 1104 7284 6439 389 845 377 73 418 468 265 444 364 274 228 6050 518 359 174 120 62 159 341
is_linear=0
shrinkage=0.1


Tree=19
num_leaves=31
num_cat=0
split_feature=12 12 8 8 8 8 14 13 10 2 11 14 11 7 10 8 9 0 10 3 14 11 10 2 8 3 7 8 8 15
split_gain=44.1588 19.9416 14.1062 8.99347 13.9736 11.9207 15.4112 11.7735 14.3511 11.6975 11.0528 21.0064 24.6308 10.6878 9.70198 11.2139 10.561 21.4866 12.1286 16.435 12.4173 19.2315 9.92291 8.75963 8.2439 19.4845 13.7896 13.1023 24.8318 20.5175
threshold=17.500000000000004 7.5000000000000009 1417.5000000000002 1385.0000000000002 1362.5000000000002 1367.5000000000002 819.13476000000003 20.108950000000004 29.500000000000004 23.370519000000005 95.780600000000007 2196.2567200000008 62.887950000000011 8.844400000000002 6.5000000000000009 1407.5000000000002 2.5000000000000004 30.500000000000004 9.5000000000000018 80.226748000000015 1763.6109000000004 53.636350000000007 28.500000000000004 18.525489500000003 1357.5000000000002 77.615976000000018 17.282750000000004 1347.5000000000002 1342.5000000000002 3.5000000000000004
decision_type=2 2 2 2 2 2 2 2 2 2 2 2 2 2 2 2 2 2 2 2 2 2 2 2 2 2 2 2 2 2
left_child=1 -1 3 4 24 -6 -7 8 -5 10 11 12 -8 -9 15 -15 17 -16 -18 20 21 -20 -23 -22 27 26 -26 28 -2 -29
right_child=2 -3 -4 7 5 6 9 13 -10 -11 -12 -13 -14 14 16 -17 18 -19 19 -21 23 22 -24 -25 25 -27 -28 29 -30 -31
leaf_value=-0.018006790364238245 0.005823589722322102 -0.0031782699405369826 0.031269044083021925 0.061596510277854066 0.073026291796794304 -0.046716533700625104 -0.014447843235654709 -0.08380645171485164 -0.03851834819430397 0.10109847755659195 0.080303198720018065 -0.069956619706418782 0.11270520448684694 -0.10583268796855755 0.018296899045667343 -0.0023717996105551719 0.0777032159579297 -0.098518061451613903 0.01038459670276214 0.065803280447920165 0.05113757887056896 -0.13358212370764128 -0.040603833769758541 -0.015565752304262584 -0.022526618111361234 0.043907565761495522 -0.12608940895908746 0.091751339241034457 -0.061158772398318566 0.0092036513161364488
leaf_weight=1087 4740 5474 218 45 52 30 39 22 21 21 24 27 25 22 31 20 21 32 39 30 35 22 24 45 36 27 20 45 56 91
leaf_count=1087 4740 5474 218 45 52 30 39 22 21 21 24 27 25 22 31 20 21 32 39 30 35 22 24 45 36 27 20 45 56 91
internal_value=0 -0.005635 0.00630908 0.00534466 0.00646084 0.0312456 0.0181577 -0.00893641 0.0297418 0.0324682 0.0199358 0.00401468 0.0352213 -0.0163789 -0.0117577 -0.0565656 -0.00501237 -0.0410377 0.00549501 -0.00228125 -0.0146603 -0.0412741 -0.0850717 0.013617 0.00538345 -0.0258704 -0.0595133 0.00590942 0.00504148 0.0365172
internal_weight=0 6561 5860 5642 5233 218 166 409 66 136 115 91 64 343 321 42 279 63 216 195 165 85 46 80 5015 83 56 4932 4796 136
internal_count=12421 6561 5860 5642 5233 218 166 409 66 136 115 91 64 343 321 42 279 63 216 195 165 85 46 80 5015 83 56 4932 4796 136
is_linear=0
shrinkage=0.1


Tree=20
num_leaves=31
num_cat=0
split_feature=12 8 19 3 3 3 1 10 8 14 13 13 13 8 11 11 8 0 3 14 2 2 11 7 11 3 12 8 14 11
split_gain=36.1759 11.6967 11.5946 17.5589 19.5997 18.177 14.2677 12.5991 12.8199 10.8811 10.332 15.8431 14.5539 10.3444 9.93576 12.3067 9.71632 9.54368 9.38103 9.31723 9.31354 13.6042 9.28628 15.939 14.5454 9.08033 8.52482 8.34344 8.18105 8.1719
threshold=12.500000000000002 1432.5000000000002 1.0000000180025095e-35 78.399107500000014 78.338599500000015 78.40595900000001 4.1500000000000012 31.500000000000004 1132.5000000000002 605.50552000000016 34.400000000000006 38.500900000000009 28.093350000000004 1192.5000000000002 77.156700000000015 95.780600000000007 497.50000000000006 28.500000000000004 75.893253000000016 1937.3926200000003 10.977993000000001 11.003675000000003 33.515100000000011 9.9685000000000006 50.768750000000004 80.251304500000018 1.0000000180025095e-35 1432.5000000000002 2313.8384000000005 89.762850000000014
decision_type=2 2 2 2 2 2 2 2 2 2 2 2 2 2 2 2 2 2 2 2 2 2 2 2 2 2 2 2 2 2
left_child=26 2 16 4 6 -5 9 10 -9 -4 12 -12 22 -14 20 17 -2 -16 -17 -6 -8 -22 23 -7 -24 -10 -1 -28 -11 -19
right_child=1 -3 3 5 19 7 14 8 25 28 11 -13 13 -15 15 18 -18 29 -20 -21 21 -23 24 -25 -26 -27 27 -29 -30 -31
leaf_value=-0.024762931466102603 -0.050648496962255908 0.04139683925652806 0.036705436810318917 -0.094458050701929183 0.10737941460136105 -0.023484124507755041 0.085367079143938818 0.083262988552451137 -0.047806121468205343 -0.049118888093844848 -0.10141353009889523 -0.0052791498228907593 0.097713485626237731 0.0068136930465698244 -0.048596358109986589 0.065490747847267092 0.0014242367960428772 0.03160680761170942 -0.016968443651090969 0.021362124010920525 -0.040130498281547002 0.02365843647245662 -0.09397870147004142 0.082144151329994197 -4.5118053608080923e-05 0.034644539752865543 -0.0083294529588528853 0.036071113029191658 0.022762819603085519 -0.043326112424785443
leaf_weight=325 36 79 28 23 34 50 23 30 22 76 30 40 21 31 62 37 7717 43 22 20 35 747 32 20 34 34 2685 43 20 22
leaf_count=325 36 79 28 23 34 50 23 30 22 76 30 40 21 31 62 37 7717 43 22 20 35 747 32 20 34 34 2685 43 20 22
internal_value=0 0.00308086 0.00275499 0.0106925 0.0166832 -0.00838966 0.0138336 -0.00263509 0.0305124 -0.0181454 -0.0136843 -0.0464796 -0.00147323 0.0435232 0.017835 -0.00299572 0.00118244 -0.020528 0.0347433 0.0755212 0.0226481 0.0208034 -0.0186778 0.00669538 -0.0455887 0.00225321 -0.00945348 -0.00762959 -0.0341435 0.0062449
internal_weight=0 9368 9289 1536 1169 367 1115 344 86 124 258 70 188 52 991 186 7753 127 59 54 805 782 136 70 66 56 3053 2728 96 65
internal_count=12421 9368 9289 1536 1169 367 1115 344 86 124 258 70 188 52 991 186 7753 127 59 54 805 782 136 70 66 56 3053 2728 96 65
is_linear=0
shrinkage=0.1


Tree=21
num_leaves=31
num_cat=0
split_feature=12 12 8 15 17 2 0 4 4 0 13 6 14 0 13 5 10 13 11 2 7 11 0 10 11 3 8 8 13 14
split_gain=32.0834 13.3311 10.5227 7.63113 7.62407 13.7819 16.4151 29.2557 24.0496 14.3911 10.8086 10.6609 11.8869 9.73278 15.2574 16.0601 31.7018 18.9505 24.9703 20.7309 15.3173 17.976 18.3069 23.356 16.5397 18.5489 15.2034 14.8245 12.7755 12.5776
threshold=17.500000000000004 7.5000000000000009 1417.5000000000002 4.5000000000000009 1.0000000180025095e-35 23.364576500000002 26.500000000000004 26.932924000000003 26.940726500000004 30.500000000000004 57.977650000000004 2.5000000000000004 1432.6768400000003 24.500000000000004 57.977650000000004 73.199541500000024 29.500000000000004 23.316350000000003 42.436850000000007 12.935013500000002 23.474850000000004 71.540700000000015 23.500000000000004 17.500000000000004 52.101250000000007 76.643121000000008 797.50000000000011 1227.5000000000002 33.940200000000011 202.68438000000003
decision_type=2 2 2 2 2 2 2 2 2 2 2 2 2 2 2 2 2 2 2 2 2 2 2 2 2 2 2 2 2 2
left_child=1 -1 4 -4 11 10 8 -8 -7 -9 -6 13 -13 14 15 16 26 29 19 -19 21 22 23 -20 -25 -26 -2 -22 -24 -17
right_child=2 -3 3 -5 5 6 7 9 -10 -11 -12 12 -14 -15 -16 17 -18 18 20 -21 27 -23 28 24 25 -27 -28 -29 -30 -31
leaf_value=-0.014918586869467919 0.091671269061043864 -0.0027944681780793217 0.040210678957659625 0.00056670020296149066 -0.0068583818371230863 -0.090777143560073992 0.10333982383211454 0.072223368145170663 0.03931427527839939 -0.026136608551457233 -0.073643510475754737 0.0019894531794956752 0.10717293620109558 0.0031428739427378223 0.078795136176049718 0.072603347581135083 -0.068655736744403839 -0.12871261707374029 -0.017722313412495198 -0.01596652219352657 -0.065376258468212087 0.049557274318405342 -0.076851250643008628 0.093775312043726453 -0.025087353110659957 0.06952197194099427 -0.0027413741995890935 0.020961285362372531 0.015193055540323259 0.025587816407467247
leaf_weight=1087 23 5474 145 73 790 27 48 21 30 51 25 21 22 3466 35 73 69 21 93 73 43 155 38 49 43 40 66 37 25 258
leaf_count=1087 23 5474 145 73 790 27 48 21 30 51 25 21 22 3466 35 73 69 21 93 73 43 155 38 49 43 40 66 37 25 258
internal_value=0 -0.00480314 0.00537772 0.0269354 0.00454476 -0.00341404 0.0218784 0.042867 -0.022308 0.00255172 -0.00890701 0.00624263 0.0558043 0.00578004 0.0137909 0.0117338 -0.0177831 0.0166533 0.00629767 -0.0411545 0.0148264 0.0220989 0.00732089 0.0206619 0.0477054 0.0205075 0.0216574 -0.0254451 -0.0403257 0.0359568
internal_weight=0 6561 5860 218 5642 992 177 120 57 72 815 4650 43 4607 1141 1106 158 948 617 94 523 443 288 225 132 83 89 80 63 331
internal_count=12421 6561 5860 218 5642 992 177 120 57 72 815 4650 43 4607 1141 1106 158 948 617 94 523 443 288 225 132 83 89 80 63 331
is_linear=0
shrinkage=0.1


Tree=22
num_leaves=31
num_cat=0
split_feature=12 12 8 8 8 18 13 10 0 10 5 7 8 0 13 11 7 2 14 2 15 10 3 3 14 8 15 8 8 15
split_gain=25.9875 10.7982 8.52335 7.24947 11.2977 10.8458 17.9044 25.0005 14.7116 12.1301 10.1355 9.72881 10.5637 13.8432 18.252 10.5764 10.0934 9.72268 13.1543 8.66956 9.96052 7.97865 7.62068 7.38656 7.11042 6.42869 16.8758 10.7465 19.9594 16.6206
threshold=17.500000000000004 7.5000000000000009 1417.5000000000002 1385.0000000000002 1362.5000000000002 1.0000000180025095e-35 20.108950000000004 27.500000000000004 29.778561314075336 20.500000000000004 72.955327000000011 8.844400000000002 1407.5000000000002 29.778561314075336 38.500900000000009 57.915900000000008 17.282750000000004 22.310427500000003 1643.6746400000002 17.445839000000003 3.5000000000000004 25.500000000000004 75.794424500000005 76.998971500000025 685.10912000000019 1357.5000000000002 3.5000000000000004 1347.5000000000002 1342.5000000000002 3.5000000000000004
decision_type=2 2 2 2 2 2 2 2 2 2 2 2 2 2 2 2 2 2 2 2 2 2 2 2 2 2 2 2 2 2
left_child=1 -1 3 4 25 6 7 -5 -7 -10 -6 -8 16 15 -15 -14 -13 18 -18 21 -21 -12 -22 -23 -4 27 -27 28 -2 -29
right_child=2 -3 24 5 10 8 11 -9 9 -11 19 12 13 14 -16 -17 17 -19 -20 20 22 23 -24 -25 -26 26 -28 29 -30 -31
leaf_value=-0.013426729403401914 0.0045032631475903301 -0.0025150210233338879 0.071287246976446894 0.10802818862721325 -0.03866359208311354 0.01324297772454364 -0.078469229880720387 -0.030451186746358872 -0.12764481206734976 -0.02357548950683503 0.041978853400796656 -0.052158627784880465 0.032065282664869146 0.1017900599166751 -0.013573500017325083 -0.058067255367835358 -0.042670750804245476 -0.048781131354293655 0.05752293385295687 0.013616381656555904 0.11689461916685105 0.024375490415841344 0.049693753073612852 -0.058719816156055621 0.017308856952739392 -0.085006236233587926 0.0095685541112389833 0.082020864263176924 -0.055549055710434919 0.0077247601542314824
leaf_weight=1087 4740 5474 28 32 21 28 20 22 24 21 40 67 23 32 24 30 20 28 38 42 27 20 45 23 190 29 54 45 56 91
leaf_count=1087 4740 5474 28 32 21 28 20 22 24 21 40 67 23 32 24 30 20 28 38 42 27 20 45 23 190 29 54 45 56 91
internal_value=0 -0.00432283 0.00483995 0.00409028 0.00509241 -0.00873156 -0.00114122 0.0516107 -0.0436679 -0.0790791 0.0273781 -0.0112426 -0.00611085 0.0176789 0.0523485 -0.0189531 -0.0230591 -0.000388549 0.0229734 0.0344181 0.0523181 0.00983263 0.0748941 -0.0200708 0.0242419 0.00412366 -0.0234756 0.00458812 0.00380207 0.032308
internal_weight=0 6561 5860 5642 5233 409 336 54 73 45 218 282 262 109 56 53 153 86 58 197 114 83 72 43 218 5015 83 4932 4796 136
internal_count=12421 6561 5860 5642 5233 409 336 54 73 45 218 282 262 109 56 53 153 86 58 197 114 83 72 43 218 5015 83 4932 4796 136
is_linear=0
shrinkage=0.1


Tree=23
num_leaves=31
num_cat=0
split_feature=12 12 3 0 3 4 14 8 8 5 8 11 7 4 5 20 13 0 0 13 8 7 11 2 14 7 6 14 8 22
split_gain=21.0499 8.74651 7.43285 14.7771 10.3526 14.2242 19.3618 11.3309 30.8566 51.918 18.121 21.7231 15.3653 18.7751 13.5037 14.3608 17.8144 14.6495 13.2358 14.6809 13.9789 12.6171 15.4483 14.308 14.2475 13.3212 13.0803 18.7475 12.9616 12.2274
threshold=17.500000000000004 7.5000000000000009 72.773453000000003 35.500000000000007 72.793173500000009 21.244270000000004 819.13476000000003 1167.5000000000002 1187.5000000000002 78.121397500000015 1182.5000000000002 44.164250000000003 14.117800000000001 21.274240500000005 72.922866000000013 1.0000000180025095e-35 21.924200000000003 29.778561314075336 24.500000000000004 59.976350000000004 1417.5000000000002 23.474850000000004 93.368600000000015 11.001257500000003 298.57192000000003 24.725550000000002 1.5000000000000002 1047.0718200000003 887.50000000000011 1.0000000180025095e-35
decision_type=2 2 2 2 2 2 2 2 2 2 2 2 2 2 2 2 2 2 2 2 2 2 2 2 2 2 2 2 2 2
left_child=1 -1 3 -2 5 6 -4 14 9 10 11 -9 -13 -14 15 16 -6 -18 19 -10 29 22 23 24 -16 -23 -25 28 -28 -20
right_child=2 -3 4 -5 7 -7 -8 8 18 -11 -12 12 13 -15 21 -17 17 -19 20 -21 -22 25 -24 26 -26 -27 27 -29 -30 -31
leaf_value=-0.012084056251950515 -0.03344791082074932 -0.002263519223695542 0.052692939849599968 0.057963817318280542 0.021121868359354826 0.075704242225657123 -0.022737627899324573 -0.017198669677600264 0.014792485288811445 -0.031085780956573897 0.1450170826664644 0.14597444681880564 0.014557049820820492 0.11144644919161995 0.019708010554313662 -0.097218114825395441 -0.096752823569944926 -0.00064293697701189032 0.0026477420962571782 0.09446160698619982 0.029626745239837222 -0.066912050009705126 0.051199706878799656 0.0015933063899880185 -0.075338078727540767 -0.0072808294862842377 0.034428762495517733 -0.0043052437404791514 0.1482779712975025 -0.018666314400381103
leaf_weight=1087 112 5474 63 21 65 47 74 30 638 67 29 26 45 36 24 26 35 29 1640 24 163 52 65 1965 46 134 20 42 20 322
leaf_count=1087 112 5474 63 21 65 47 74 30 638 67 29 26 45 36 24 26 35 29 1640 24 163 52 65 1965 46 134 20 42 20 322
internal_value=0 -0.00389055 0.00435595 -0.0190145 0.00489869 0.0282346 0.0119494 0.00412405 0.00825657 0.0432157 0.0732049 0.0580038 0.0790886 0.057619 -0.00082252 -0.0294177 -0.0157525 -0.053203 0.0053339 0.0176808 0.00148748 0.00104921 0.00318038 0.001706 -0.0427508 -0.0239519 0.00322626 0.0423575 0.0913534 -0.000850283
internal_weight=0 6561 5860 133 5727 184 137 5543 3020 233 166 137 107 81 2523 155 129 64 2787 662 2125 2368 2182 2117 70 186 2047 82 40 1962
internal_count=12421 6561 5860 133 5727 184 137 5543 3020 233 166 137 107 81 2523 155 129 64 2787 662 2125 2368 2182 2117 70 186 2047 82 40 1962
is_linear=0
shrinkage=0.1


Tree=24
num_leaves=31
num_cat=0
split_feature=12 8 8 8 7 8 7 14 8 8 15 0 14 7 9 21 10 13 4 2 10 2 13 8 8 8 13 13 15 3
split_gain=17.5316 9.48195 9.46833 9.89459 67.5144 29.4131 19.8367 22.5602 19.2608 27.6453 17.8428 17.7472 17.0425 17.0637 14.7807 13.6415 21.4321 13.3558 14.5043 15.9636 17.3109 15.4431 13.173 29.4548 15.7619 31.1798 24.6691 23.4725 15.24 13.408
threshold=12.500000000000002 502.50000000000006 532.50000000000011 1042.5000000000002 11.955300000000001 917.50000000000011 10.133700000000003 374.03024000000005 1085.0000000000002 1107.5000000000002 3.5000000000000004 34.500000000000007 626.22684000000015 16.577550000000006 8.5000000000000018 1.0000000180025095e-35 37.500000000000007 30.676850000000005 21.284298500000002 22.751545500000002 22.500000000000004 18.544942000000002 10.080900000000002 702.50000000000011 872.50000000000011 912.50000000000011 15.758700000000003 27.144600000000001 4.5000000000000009 72.789890500000013
decision_type=2 2 2 2 2 2 2 2 2 2 2 2 2 2 2 2 2 2 2 2 2 2 2 2 2 2 2 2 2 2
left_child=-1 -2 -3 4 6 -6 15 -8 12 10 11 -10 13 -5 -9 22 -17 -14 21 -20 -21 -19 23 29 27 26 -26 28 -24 -4
right_child=1 2 3 8 5 -7 7 14 9 -11 -12 -13 17 -15 -16 16 -18 18 19 20 -22 -23 24 -25 25 -27 -28 -29 -30 -31
leaf_value=-0.0065810016143177524 -0.03963797415339354 0.028579248230466071 0.077415009588003167 0.00057525148253832292 0.042484814699353848 -0.064491408121302329 0.092169903510925827 -0.051365745519953113 -0.014138329922229992 0.0033827195734796043 -0.040246697950867882 0.072548232177893329 0.011628274459852487 -0.098446337208151824 0.035955426783581816 0.036265197988002672 -0.051362833651629358 0.041773573927090552 0.1413205852508545 0.0048774616840558177 0.10904148154788547 -0.017017428906726056 -0.026267763768984861 0.07254799937918073 -0.034116787509992717 -0.014564762666209867 0.095574525675990368 -0.099599741516928922 0.024683514625673565 -0.0070223674515173546
leaf_weight=3053 54 136 20 134 29 226 51 28 111 6211 248 30 372 20 63 181 33 167 25 39 27 61 339 63 20 201 55 38 71 315
leaf_count=3053 54 136 20 134 29 226 51 28 111 6211 248 30 372 20 63 181 33 167 25 39 27 61 339 63 20 201 55 38 71 315
internal_value=0 0.00214473 0.00238697 0.00199885 -0.00480661 -0.0523255 0.00339184 0.0389269 0.00358299 0.00176303 -0.0240979 0.00430562 0.0177981 -0.0122847 0.00908737 -0.000385091 0.0227525 0.0245025 0.0395156 0.0732676 0.04749 0.0260444 -0.00479814 0.00981603 -0.0128319 0.00596647 0.0609902 -0.024413 -0.0174445 -0.00198133
internal_weight=0 9368 9314 9178 1733 255 1478 142 7445 6600 389 141 845 154 91 1336 214 691 319 91 66 228 1122 398 724 276 75 448 410 335
internal_count=12421 9368 9314 9178 1733 255 1478 142 7445 6600 389 141 845 154 91 1336 214 691 319 91 66 228 1122 398 724 276 75 448 410 335
is_linear=0
shrinkage=0.1


Tree=25
num_leaves=31
num_cat=0
split_feature=12 8 1 8 0 2 7 2 5 3 20 6 5 25 14 3 1 0 15 11 14 11 2 7 0 8 3 3 8 8
split_gain=14.9688 7.54925 6.49838 10.802 12.957 11.2482 15.716 9.68965 8.22303 23.3412 11.3388 10.9879 9.87461 10.1235 9.45403 16.316 15.5626 9.36463 9.49821 8.48772 8.15224 18.4468 15.5829 19.0374 18.8216 13.2414 13.2357 18.3774 12.3265 14.9442
threshold=17.500000000000004 497.50000000000006 4.3500000000000005 817.50000000000011 38.500000000000007 22.745292500000005 4.5466500000000005 30.895510500000004 80.344916500000025 80.317088500000011 1.0000000180025095e-35 1.5000000000000002 80.327973500000013 1.0000000180025095e-35 1963.6689200000003 81.834671500000013 4.7500000000000009 26.500000000000004 3.5000000000000004 64.997950000000017 909.97278000000017 68.551500000000019 22.730194000000001 7.9898500000000015 34.500000000000007 1197.5000000000002 78.399107500000014 85.324654000000024 1312.5000000000002 1205.0000000000002
decision_type=2 2 2 2 2 2 2 2 2 2 2 2 2 2 2 2 2 2 2 2 2 2 2 2 2 2 2 2 2 2
left_child=1 -1 3 5 20 6 -2 8 12 19 11 14 -4 -14 -11 -16 -17 -12 -19 -10 22 26 23 -5 -25 -24 28 -28 29 -22
right_child=2 -3 7 4 -6 -7 -8 -9 9 10 17 -13 13 -15 15 16 -18 18 -20 -21 21 -23 25 24 -26 -27 27 -29 -30 -31
leaf_value=-0.025844735590548354 0.028067316273227335 -0.0027708509305789325 0.0036726790549458789 -0.090960733166762772 0.050656408749203734 -0.077106516177837675 -0.080500619933009152 0.057524737673146392 0.12179228903353215 0.0072902483866046702 0.088178532041849639 0.067774281726003846 -0.076487099259130428 0.013437218910881453 -0.099264572622875372 0.052391184249427174 -0.051269751489162442 -0.034323877189308405 0.059903328574222071 0.04018592312932015 -0.0030039800220124781 0.007698463077377842 0.013269938741411483 -0.01005266613714146 0.083951608783432427 0.11339806270599367 -0.12706952964694337 -0.017160709691233934 0.023667111191233353 -0.066065501892829656
leaf_weight=145 40 6416 4229 21 47 39 20 35 25 408 31 26 31 21 24 28 30 20 23 26 84 297 28 89 28 25 29 32 56 68
leaf_count=145 40 6416 4229 21 47 39 20 35 25 408 31 26 31 21 24 28 30 20 23 26 84 297 28 89 28 25 29 32 56 68
internal_value=0 -0.00328079 0.00367325 -0.00412899 -0.000291048 -0.0352977 -0.008122 0.00509456 0.00472173 0.0152848 0.0096744 0.00442454 0.00314012 -0.0401715 0.00106313 -0.0299206 -0.00122654 0.0462815 0.0160767 0.080189 -0.00345423 -0.00948259 0.0144099 -0.00329143 0.0124441 0.0605002 -0.028452 -0.0694124 -0.0164396 -0.0312157
internal_weight=0 6561 5860 903 804 99 60 4957 4922 641 590 516 4281 52 490 82 58 74 43 51 757 566 191 138 117 53 269 61 208 152
internal_count=12421 6561 5860 903 804 99 60 4957 4922 641 590 516 4281 52 490 82 58 74 43 51 757 566 191 138 117 53 269 61 208 152
is_linear=0
shrinkage=0.1


Tree=26
num_leaves=31
num_cat=0
split_feature=12 19 3 3 3 1 10 14 2 14 13 13 13 12 2 14 3 14 3 0 7 8 8 1 14 5 0 0 13 30
split_gain=12.4442 9.11275 13.9924 15.126 13.9081 10.8189 9.96609 11.6603 9.53638 9.34083 8.57323 12.9634 11.7286 9.19298 8.3943 8.05677 15.2064 22.3969 9.05145 7.87816 7.80205 21.3094 13.0524 12.8736 11.2121 7.13251 11.9809 9.82968 8.86096 8.387
threshold=12.500000000000002 1.0000000180025095e-35 78.399107500000014 78.338599500000015 78.40595900000001 4.1500000000000012 31.500000000000004 658.16480000000013 17.436036000000005 605.50552000000016 34.400000000000006 38.500900000000009 28.093350000000004 17.500000000000004 23.354102500000003 2358.7278200000005 73.897193500000014 3024.6320000000005 72.773453000000003 28.500000000000004 6.1251500000000005 657.50000000000011 577.50000000000011 4.7500000000000009 147.47494000000003 85.46777950000002 34.500000000000007 26.500000000000004 33.396600000000007 1.0000000180025095e-35
decision_type=2 2 2 2 2 2 2 2 2 2 2 2 2 2 2 2 2 2 2 2 2 2 2 2 2 2 2 2 2 2
left_child=-1 25 3 5 -4 9 10 -8 -5 -3 12 -12 14 -14 19 18 -17 -18 -7 -6 21 22 -20 -23 -22 29 27 -27 -29 -2
right_child=1 2 4 8 6 15 7 -9 -10 -11 11 -13 13 -15 -16 16 17 -19 20 -21 24 23 -24 -25 -26 26 -28 28 -30 -31
leaf_value=-0.0055445424413148045 -0.0010641797261973964 0.034534622436123236 -0.083518582971199698 0.0094626890122890481 -0.0068248529434204105 -0.04194002150713156 0.079285162634083209 0.00070543800448549213 0.095585758068288368 -0.031108441405619188 -0.092586303750673934 -0.005626563504338265 -0.014677600115537643 0.0717475121608004 0.0026913469859275473 0.045639406378643638 -0.058960997304280428 0.044311346740772334 -0.0057461055461317306 -0.083426902725778782 0.088883061592395493 -0.0062228049987401723 0.085299535722081224 -0.097064847499132162 0.021983566793329811 -0.0036721598864956338 0.030005683569294034 -0.094708520409307995 -0.012475234344601632 0.0066201099996310939
leaf_weight=3053 5800 28 23 20 25 24 28 58 36 96 30 40 20 32 83 39 70 30 32 29 26 39 31 26 687 44 33 38 20 1881
leaf_count=3053 5800 28 23 20 25 24 28 58 36 96 30 40 20 32 83 39 70 30 32 29 26 39 31 26 687 44 33 38 20 1881
internal_value=0 0.00180695 0.00880613 0.0140997 -0.00822535 0.0115813 -0.00320581 0.0262895 0.0648275 -0.0162858 -0.0129996 -0.042895 -0.00192726 0.0385071 -0.0172746 0.0150231 -0.00732369 -0.0279793 0.018614 -0.047963 0.0203421 -0.00239035 0.0390541 -0.0425596 0.0244231 0.00041714 -0.022369 -0.0393138 -0.0663522 0.000817626
internal_weight=0 9368 1552 1184 368 1128 345 86 56 124 259 70 189 52 137 1004 139 100 865 54 841 128 63 65 713 7816 135 102 58 7681
internal_count=12421 9368 1552 1184 368 1128 345 86 56 124 259 70 189 52 137 1004 139 100 865 54 841 128 63 65 713 7816 135 102 58 7681
is_linear=0
shrinkage=0.1


Tree=27
num_leaves=31
num_cat=0
split_feature=12 8 3 0 10 15 3 8 6 11 11 3 10 13 1 7 5 1 13 13 28 7 7 13 2 7 3 8 1 7
split_gain=10.8435 6.01668 6.10747 12.2019 9.60255 12.8365 8.31616 8.19021 6.92242 20.5755 27.4173 27.557 18.6898 13.0562 13.0113 13.4454 10.0242 9.58857 12.556 13.9084 10.0202 21.3612 25.0094 19.1076 18.3056 17.0642 15.7797 15.5117 14.983 16.4216
threshold=17.500000000000004 1427.5000000000002 72.773453000000003 35.500000000000007 24.500000000000004 3.5000000000000004 72.789207000000019 1192.5000000000002 1.5000000000000002 84.920500000000018 68.24160000000002 75.800600500000016 36.500000000000007 33.777200000000008 4.7500000000000009 14.048100000000002 73.259541500000026 4.3500000000000005 14.429000000000002 10.210400000000002 1.0000000180025095e-35 14.652400000000002 13.256250000000003 25.675100000000004 30.895510500000004 17.961400000000001 73.165046500000017 1092.5000000000002 4.8500000000000005 25.979400000000002
decision_type=2 2 2 2 2 2 2 2 2 2 2 2 2 2 2 2 2 2 2 2 2 2 2 2 2 2 2 2 2 2
left_child=-1 2 3 4 7 -6 -4 -2 17 10 11 16 14 -12 15 -13 -10 18 19 -8 24 22 -22 25 -19 -23 -25 -28 29 -29
right_child=1 -3 6 -5 5 -7 8 -9 9 -11 13 12 -14 -15 -16 -17 -18 20 -20 -21 21 23 -24 26 -26 -27 27 28 -30 -31
leaf_value=-0.0027923492288917892 0.036923731628943378 0.028087705107111685 0.031088754321847645 0.051084315989698682 -0.11435058403015137 -0.018041660852970615 -0.013701669013096116 -0.041711429778773054 -0.012547859624028207 -0.047670732316605395 0.036594524558379575 0.072544615934876835 -0.059093924150580457 0.11502760545600479 0.10140606915128643 -0.0086394838660078903 -0.10934903414353081 0.00018218760228631809 -0.0037778503580978098 -0.094001490491278039 0.016735305702869158 -0.010948057613221178 0.078326537506654859 0.060228908957636107 0.086073330402374276 -0.099656711518764499 0.044842217096555059 -0.0046532775799278175 -0.041958779488496557 0.086658583623780455
leaf_weight=6561 27 95 105 21 25 31 59 26 20 42 44 34 21 41 29 51 23 3325 651 34 545 57 75 47 25 35 61 188 101 22
leaf_count=6561 27 95 105 21 25 31 59 26 20 42 44 34 21 41 29 51 23 3325 651 34 545 57 75 47 25 35 61 188 101 22
internal_value=0 0.00312638 0.00271505 -0.0187142 -0.0321616 -0.0610367 0.00320943 -0.00165201 0.00268007 0.0173241 0.0277035 0.0053917 0.0275978 0.074427 0.0435674 0.0238342 -0.0643252 0.00182525 -0.00868794 -0.0430586 0.00357081 0.0117093 0.0241859 -0.00342868 0.000823166 -0.0446959 0.00563239 -0.00126556 -0.0103092 0.00491273
internal_weight=0 5860 5765 130 109 56 5635 53 5530 305 263 178 135 85 114 85 43 5225 744 93 4481 1131 620 511 3350 92 419 372 311 210
internal_count=12421 5860 5765 130 109 56 5635 53 5530 305 263 178 135 85 114 85 43 5225 744 93 4481 1131 620 511 3350 92 419 372 311 210
is_linear=0
shrinkage=0.1


Tree=28
num_leaves=31
num_cat=0
split_feature=8 12 8 8 13 10 8 7 8 8 8 5 7 14 14 0 11 7 9 1 8 8 13 7 7 10 11 7 12 9
split_gain=9.72257 9.67411 7.65618 11.7934 12.3242 16.7288 7.51064 54.7352 23.689 15.6103 21.2039 17.65 15.1621 17.3734 13.8379 14.0418 13.051 12.8943 12.8686 14.6549 12.5704 20.1805 20.5551 19.1239 14.0331 13.3847 12.6966 13.6733 16.5857 12.0051
threshold=1432.5000000000002 12.500000000000002 507.50000000000006 532.50000000000011 7.6879000000000008 13.500000000000002 1042.5000000000002 11.955300000000001 917.50000000000011 1085.0000000000002 1107.5000000000002 80.344916500000025 10.133700000000003 374.03024000000005 626.22684000000015 29.278561314075336 48.461300000000008 5.5050000000000017 12.500000000000002 4.7500000000000009 1132.5000000000002 1122.5000000000002 27.959050000000005 16.060250000000003 11.053400000000002 18.500000000000004 41.909300000000009 18.206800000000005 17.500000000000004 17.500000000000004
decision_type=2 2 2 2 2 2 2 2 2 2 2 2 2 2 2 2 2 2 2 2 2 2 2 2 2 2 2 2 2 2
left_child=1 -1 -3 4 -4 -6 7 12 -9 14 11 29 -5 -14 15 -8 -13 -12 19 -15 21 22 23 24 -19 -26 -23 28 -28 -11
right_child=-2 2 3 6 5 -7 9 8 -10 10 17 16 13 18 -16 -17 -18 20 -20 -21 -22 26 -24 -25 25 -27 27 -29 -30 -31
leaf_value=-0.0052355586615787731 0.026590738248299151 -0.030737796625927894 0.077325417646547656 -0.00069072239848918951 0.063887927867472175 -0.031601232948691348 -0.044850754756480454 0.037529501588693982 -0.058474641753282333 -0.037199232701401595 0.073995963454246513 0.084803233262617142 0.080401818349235016 0.035734512843191624 0.021375946208495006 0.015792595705993118 -0.017376889050006866 -0.034413103837715953 0.049954800847917799 -0.072500177845358851 0.00065216315447057943 -0.0047165736153319078 0.026955149746122394 -0.070351463915021326 0.090852766990661638 -0.0038643869898609216 0.031065254509449004 0.019868083440877024 0.12705638842450248 0.018795352971011942
leaf_weight=2996 136 74 41 1336 32 43 70 29 226 295 25 25 51 22 691 84 25 57 40 29 5590 37 185 54 25 37 30 47 45 44
leaf_count=2996 136 74 41 1336 32 43 70 29 226 295 25 25 51 22 691 84 25 57 40 29 5590 37 185 54 25 37 30 47 45 44
internal_value=0 -0.00029437 0.00129932 0.00155659 0.0332405 0.00914081 0.00115266 -0.00477056 -0.0475565 0.00254622 0.000889076 -0.0217509 0.00261132 0.0336784 0.0153347 -0.0117726 0.0337132 0.00232531 0.00749281 -0.0258107 0.00203191 0.0169503 0.00378356 -0.0209953 0.0014016 0.034328 0.0465961 0.0621582 0.0886599 -0.0299315
internal_weight=0 12285 9289 9215 116 75 9099 1733 255 7366 6521 389 1478 142 845 154 50 6132 91 51 6107 517 358 173 119 62 159 122 75 339
internal_count=12421 12285 9289 9215 116 75 9099 1733 255 7366 6521 389 1478 142 845 154 50 6132 91 51 6107 517 358 173 119 62 159 122 75 339
is_linear=0
shrinkage=0.1


Tree=29
num_leaves=31
num_cat=0
split_feature=19 8 8 8 8 15 2 11 8 7 7 8 8 10 8 12 11 11 8 9 8 4 9 4 11 7 8 3 8 1
split_gain=8.88518 7.51771 8.03054 11.7246 14.4756 13.4404 13.7986 9.25999 31.1571 11.4638 18.1303 12.968 27.7704 26.6998 16.5201 11.9009 11.4741 18.6153 9.75686 9.65457 9.15546 11.6629 10.2773 11.6346 9.07156 8.84974 14.4964 20.1716 16.8934 12.242
threshold=1.0000000180025095e-35 1432.5000000000002 1392.5000000000002 1362.5000000000002 1357.5000000000002 3.5000000000000004 12.937579000000001 72.866100000000003 1037.5000000000002 16.179700000000004 14.216450000000002 1325.0000000000002 1292.5000000000002 34.500000000000007 1337.5000000000002 17.500000000000004 77.555050000000008 87.020550000000014 1302.5000000000002 12.500000000000002 1057.5000000000002 17.562892500000004 7.5000000000000009 13.055640000000002 47.790550000000003 22.860600000000002 1242.5000000000002 77.644540500000019 1222.5000000000002 3.5500000000000003
decision_type=2 2 2 2 2 2 2 2 2 2 2 2 2 2 2 2 2 2 2 2 2 2 2 2 2 2 2 2 2 2
left_child=1 2 3 4 7 -6 -7 25 -9 10 16 12 20 15 -13 -14 -10 -18 -17 -12 21 -11 23 -22 -8 29 27 28 -27 -1
right_child=-2 -3 -4 -5 5 6 24 8 9 11 19 14 13 -15 -16 18 17 -19 -20 -21 22 -23 -24 -25 -26 26 -28 -29 -30 -31
leaf_value=-0.051603383322873592 0.0060017096906772793 0.025429878738664449 -0.010541949035924222 0.01394671913108167 -0.08074212095072103 -0.082413391200825581 -0.040133889876306061 -0.054044499864713075 0.044219211857610692 0.066364215664109411 0.02875495724299032 -0.088502403534948829 0.032422606584926447 -0.03450037580111931 -0.0039276365364666081 0.055221510926882426 -0.1072708564122086 0.010673560795839877 0.13428252162160101 0.077086871426741962 0.071787585218747452 0.0029382932121196476 -0.0083156264240595527 0.0071908603432953733 0.043457706700507054 -0.0062631715641735669 0.013651821490090628 -0.083677989989519128 -0.1030872692167759 -0.001432162975132511
leaf_weight=49 2058 105 890 523 43 20 20 84 24 49 138 32 42 29 83 27 23 32 37 59 30 71 639 395 37 182 104 56 20 6520
leaf_count=49 2058 105 890 523 43 20 20 84 24 49 138 32 42 29 83 27 23 32 37 59 30 71 639 395 37 182 104 56 20 6520
internal_value=0 -0.00119189 -0.00146438 -0.000601977 -0.00146223 -0.0359577 -0.0109482 -0.000987797 0.00541558 0.00833643 0.0269996 0.00474435 0.00755229 0.0505235 -0.0274615 0.0737848 -0.0134736 -0.0386487 0.100929 0.04323 0.0026527 0.0288372 -0.00030044 0.0117506 0.0141273 -0.00264523 -0.0178669 -0.0305721 -0.0158497 -0.0018064
internal_weight=0 10363 10258 9368 8845 120 77 8725 1794 1710 276 1434 1319 135 115 106 79 55 64 197 1184 120 1064 425 57 6931 362 258 202 6569
internal_count=12421 10363 10258 9368 8845 120 77 8725 1794 1710 276 1434 1319 135 115 106 79 55 64 197 1184 120 1064 425 57 6931 362 258 202 6569
is_linear=0
shrinkage=0.1


Tree=30
num_leaves=31
num_cat=0
split_feature=12 8 8 8 8 8 8 11 0 14 7 8 8 8 10 14 3 8 8 14 8 9 5 4 3 10 10 0 14 14
split_gain=7.96074 9.69686 7.95739 10.0017 11.2463 15.5272 18.0421 25.0214 24.2848 19.2007 16.1303 14.757 42.5842 24.7715 20.5947 22.5284 20.004 17.8283 23.284 16.9682 16.2323 16.025 16.1927 19.9903 15.9599 15.8511 15.8151 15.58 14.7642 13.9325
threshold=7.5000000000000009 497.50000000000006 1427.5000000000002 1392.5000000000002 1362.5000000000002 1325.0000000000002 1302.5000000000002 101.39280000000001 38.500000000000007 851.55532000000005 14.117800000000001 1265.0000000000002 1242.5000000000002 1282.5000000000002 13.500000000000002 1179.4337600000001 76.620098500000012 1217.5000000000002 1227.5000000000002 1659.9585800000002 1182.5000000000002 11.500000000000002 78.441485500000013 13.132136000000001 78.407908000000006 33.500000000000007 29.500000000000004 29.778561314075336 1171.7045400000002 1523.9034800000002
decision_type=2 2 2 2 2 2 2 2 2 2 2 2 2 2 2 2 2 2 2 2 2 2 2 2 2 2 2 2 2 2
left_child=-1 -2 3 4 5 6 11 8 9 -8 -11 12 17 14 15 -13 27 20 19 25 -3 22 26 -24 -22 28 29 -16 -19 -15
right_child=1 2 -4 -5 -6 -7 7 -9 -10 10 -12 13 -14 21 16 -17 -18 18 -20 -21 24 -23 23 -25 -26 -27 -28 -29 -30 -31
leaf_value=-0.0081747628251483042 -0.044543761482581185 7.9863413812821633e-05 0.020494927876606221 -0.009693793991842406 0.015048343676224714 -0.012305883899390338 -0.02061963353198076 0.12024230243017275 0.11564885677526826 0.063914094359747001 0.010765909283038449 -0.12876465977766577 0.031868317146674492 0.025762932936285999 -0.0077452068169743329 -0.032345850346609951 0.0084269615771536462 -0.024757026839587425 -0.0015873215410231363 -0.073589562232761335 0.0075067820698283359 -0.020215089783111276 0.074939919759829846 -0.032573009613065085 0.041505856803812829 -0.081939740838675668 -0.0022514691621792027 -0.077735649085725139 0.060477373997370402 0.090983453386446894
leaf_weight=1087 47 5573 205 868 577 841 138 24 23 77 221 39 457 77 59 64 149 63 404 96 572 192 21 98 182 29 82 69 30 57
leaf_count=1087 47 5573 205 868 577 841 138 24 23 77 221 39 457 77 59 64 149 63 404 96 572 192 21 98 182 29 82 69 30 57
internal_value=0 0.00078401 0.000972758 0.000611628 0.0014874 0.000675457 0.00191662 0.0207058 0.0155012 0.0102182 0.0244988 0.000824943 0.0022994 -0.0112146 -0.0306765 -0.0688539 -0.0164805 0.000354803 -0.0157998 -0.0421386 0.00194295 0.00281873 0.0160202 -0.0136001 0.0157135 -0.0173904 0.0323388 -0.0454744 0.00273794 0.053506
internal_weight=0 11334 11287 11082 10214 9637 8796 483 459 436 298 8313 7406 907 380 103 277 6949 622 218 6327 527 335 119 754 122 216 128 93 134
internal_count=12421 11334 11287 11082 10214 9637 8796 483 459 436 298 8313 7406 907 380 103 277 6949 622 218 6327 527 335 119 754 122 216 128 93 134
is_linear=0
shrinkage=0.1


Tree=31
num_leaves=31
num_cat=0
split_feature=19 3 23 3 5 1 2 2 2 10 8 8 8 8 7 8 8 0 4 3 0 11 2 7 12 14 2 33 29 13
split_gain=7.1726 7.47697 14.1496 12.4487 7.73268 10.4732 8.11323 7.80817 9.40664 7.437 13.9461 8.66342 7.39872 15.9413 8.07131 8.66999 9.62107 9.46857 19.5752 9.30433 13.1494 15.308 11.68 9.78852 9.61838 8.14579 7.88138 7.38798 9.20387 10.8569
threshold=1.0000000180025095e-35 78.399107500000014 1.0000000180025095e-35 78.40595900000001 78.121397500000015 3.9500000000000006 17.436036000000005 10.977993000000001 11.002430000000002 5.5000000000000009 1025.0000000000002 1162.5000000000002 1047.5000000000002 1025.0000000000002 6.0283500000000005 1302.5000000000002 1352.5000000000002 29.778561314075336 18.644296000000004 73.167770500000017 29.278561314075336 62.623400000000011 18.563192000000004 18.715500000000002 12.500000000000002 830.02882000000011 26.847876000000003 1.0000000180025095e-35 1.0000000180025095e-35 38.760550000000002
decision_type=2 2 2 2 2 2 2 2 2 2 2 2 2 2 2 2 2 2 2 2 2 2 2 2 2 2 2 2 2 2
left_child=-1 4 3 -3 5 -2 -6 -7 -9 10 -10 -12 13 -11 -14 19 17 -17 -19 25 21 24 -23 -24 -21 -16 27 -22 29 -29
right_child=1 2 -4 -5 6 7 -8 8 9 12 11 -13 14 -15 15 16 -18 18 -20 20 26 22 23 -25 -26 -27 -28 28 -30 -31
leaf_value=-0.0010708781572260084 -0.036564796073537957 -0.079369929671287531 0.048027758863237173 -0.0067298087324760411 -0.0056766705720552382 0.054686034067223471 0.060250369213255384 -0.046952809429457114 0.048792430648097289 0.0086169024879769827 -0.07821938061508639 -0.012794344549748435 -0.033750248618889603 -0.049000843008190902 0.03976065881203774 0.0038353066992115334 0.017191421071926151 -0.12484269709814162 0.0073611962919433909 0.018309894376076188 0.072325745940208436 -0.021926389001309873 0.10048806743527001 0.011352061014622451 0.086654108996042103 -0.012133227450563116 -0.035133723049823727 0.011450990659206928 -0.030334404607613882 0.088993608595236487
leaf_weight=10363 53 25 45 419 28 36 56 31 27 258 29 67 32 59 43 74 218 21 24 26 25 40 22 28 99 102 28 84 36 23
leaf_count=10363 53 25 45 419 28 36 56 31 27 258 29 67 32 59 43 74 218 21 24 26 25 40 22 28 99 102 28 84 36 23
internal_value=0 0.00539238 -0.00540448 -0.0108199 0.00875736 0.00708769 0.0382747 0.00870332 0.00751752 0.00875458 -0.0147007 -0.0325582 0.0110774 -0.00210691 0.0155958 0.017364 0.00470776 -0.0181615 -0.054334 0.0250352 0.0327189 0.049797 0.0183504 0.0505719 0.0724385 0.00325599 0.0139852 0.0221717 0.0134035 0.028119
internal_weight=0 2058 489 444 1569 1485 84 1432 1396 1365 123 96 1242 317 925 893 337 119 45 556 411 215 90 50 125 145 196 168 143 107
internal_count=12421 2058 489 444 1569 1485 84 1432 1396 1365 123 96 1242 317 925 893 337 119 45 556 411 215 90 50 125 145 196 168 143 107
is_linear=0
shrinkage=0.1


Tree=32
num_leaves=31
num_cat=0
split_feature=12 2 33 8 14 0 2 4 4 14 2 11 11 7 14 0 7 10 1 8 4 4 1 14 14 8 8 11 3 3
split_gain=6.79309 6.09638 12.8157 13.6131 13.7026 11.0758 9.90639 11.7249 8.95982 10.3919 6.89941 9.24489 16.0457 9.06504 6.54973 11.3282 8.72906 12.4875 8.19524 7.19088 6.17489 11.3953 9.0186 12.187 11.4064 7.49591 13.9764 28.4793 13.3134 12.7847
threshold=17.500000000000004 11.001257500000003 1.0000000180025095e-35 1167.5000000000002 1643.6746400000002 32.500000000000007 11.021094000000003 11.093338500000002 11.069506500000001 1098.5093600000002 12.302046500000001 63.986500000000007 72.343000000000018 12.962700000000002 417.08324000000005 22.500000000000004 12.962700000000002 30.500000000000004 4.6500000000000012 1257.5000000000002 12.343986000000003 12.386661500000001 4.7500000000000009 410.20492000000007 1149.6116200000001 1112.5000000000002 1137.5000000000002 30.829400000000003 85.330386000000018 75.79297050000001
decision_type=2 2 2 2 2 2 2 2 2 2 2 2 2 2 2 2 2 2 2 2 2 2 2 2 2 2 2 2 2 2
left_child=-1 2 -2 5 -5 -4 14 8 -8 -10 11 13 -13 -9 -3 -16 -17 18 -18 -19 -12 22 23 -22 -25 28 27 -27 -23 -29
right_child=1 6 3 4 -6 -7 7 10 9 -11 20 12 -14 -15 15 16 17 19 -20 -21 21 25 -24 24 -26 26 -28 29 -30 -31
leaf_value=-0.002210136302032123 -0.071606458482496887 -0.016163535783753583 -0.074440362136210178 -0.023697583874066674 0.083161334826477945 0.017148074183775033 -0.0015235078426831892 0.0044058889150619509 -0.11695606360832851 -0.01965866030558296 0.041270827762782576 -0.06610304706770441 0.042702733567266754 0.085883124084729298 0.083790587977273401 0.051623816194076994 0.06769564500876836 -0.056878999030838408 -0.00073677562177181248 0.014702697713737903 0.013158370236245297 -0.0045911787260592973 0.002123551233324097 -0.10315161324464357 -0.01173859036394528 -0.077301442809402945 0.0034583477215196935 0.0073387230369955942 0.037172312028706071 0.053751518787318688
leaf_weight=6561 34 38 31 21 28 23 42 22 21 23 40 23 33 36 32 58 35 36 35 23 24 1664 67 39 21 24 3052 94 80 161
leaf_count=6561 34 38 31 21 28 23 42 22 21 23 40 23 33 36 32 58 35 36 35 23 24 1664 67 39 21 24 3052 94 80 161
internal_value=0 0.00247452 -0.0183722 -0.000799781 0.0373647 -0.0354305 0.00297356 0.00207142 -0.0345606 -0.0660961 0.00265698 0.026996 -0.00198535 0.054978 0.0221609 0.0288108 0.0194025 0.00491534 0.0334794 -0.0289743 0.00213009 0.0018305 -0.0252407 -0.0470669 -0.0711571 0.00263597 0.00541683 0.0268409 -0.00267542 0.0366425
internal_weight=0 5860 137 103 49 54 5723 5466 86 44 5380 114 56 58 257 219 187 129 70 59 5266 5226 151 84 60 5075 3331 279 1744 255
internal_count=12421 5860 137 103 49 54 5723 5466 86 44 5380 114 56 58 257 219 187 129 70 59 5266 5226 151 84 60 5075 3331 279 1744 255
is_linear=0
shrinkage=0.1


Tree=33
num_leaves=31
num_cat=0
split_feature=7 3 1 4 20 13 11 7 13 7 8 18 10 3 10 11 4 21 0 12 10 8 7 2 8 7 10 0 21 7
split_gain=6.69159 19.0941 10.7855 10.4444 9.44095 22.56 9.34527 8.845 20.3273 10.5686 21.2897 9.42836 9.81884 11.3905 16.8608 15.2064 14.167 12.0868 13.2562 8.94731 11.0266 8.80319 8.68874 9.01269 9.09074 22.4898 9.49665 14.8374 8.98693 8.46742
threshold=22.983650000000004 76.973758000000018 4.9500000000000011 18.644296000000004 1.0000000180025095e-35 32.924950000000003 110.96320000000001 20.679250000000007 23.316350000000003 21.365400000000005 1317.5000000000002 1.0000000180025095e-35 42.500000000000007 75.884189500000019 20.500000000000004 80.935900000000018 18.644296000000004 1.0000000180025095e-35 24.500000000000004 17.500000000000004 14.500000000000002 1212.5000000000002 25.466250000000006 11.025600000000003 1302.5000000000002 24.394850000000002 36.500000000000007 29.278561314075336 1.0000000180025095e-35 17.880250000000004
decision_type=2 2 2 2 2 2 2 2 2 2 2 2 2 2 2 2 2 2 2 2 2 2 2 2 2 2 2 2 2 2
left_child=7 2 22 -4 6 -6 -3 29 -9 10 19 12 13 16 15 -15 -11 18 -18 -10 -21 -5 23 -2 26 -26 28 -28 -25 -1
right_child=1 4 3 21 5 -7 -8 8 9 11 -12 -13 -14 14 -16 -17 17 -19 -20 20 -22 -23 -24 24 25 -27 27 -29 -30 -31
leaf_value=0.0011496876410629613 0.059326294362545023 -0.032841865322011159 0.028595850971483053 -0.097246289564869734 -0.059200887552329474 0.039858985867059389 0.016822438035160304 -0.074174335212619222 0.031822867065911059 -0.026855671725102833 -0.019928747210204684 -0.02245121284428498 -0.045795947009766545 -0.05852157182636715 0.023780118602619402 0.020315637588500978 -0.02001089516406258 0.11111768152978685 0.058948766315126258 0.13594743309785493 0.04981060012110642 -0.020428087094000409 0.014723923957991689 -0.022895273296683102 -0.01826530692338104 0.078764301693687838 0.074453930246333275 -0.035624139375984673 -0.089720071690238046 -0.0075335524635676415
leaf_weight=8909 20 387 21 26 35 67 42 27 92 28 56 92 27 63 163 40 30 27 73 23 42 35 471 161 71 36 24 25 23 1285
leaf_count=8909 20 387 21 26 35 67 42 27 92 28 56 92 27 63 163 40 30 27 73 23 42 35 471 161 71 36 24 25 23 1285
internal_value=0 -0.00639948 0.00237009 -0.0322302 -0.0214779 0.00586785 -0.0279796 0.000841838 0.0110842 0.0141291 0.0330072 0.0067239 0.0126754 0.0163988 0.00376664 -0.0279052 0.0376655 0.0515624 0.0359508 0.0518888 0.0802898 -0.0531703 0.00578431 -0.00591168 -0.00974921 0.0143802 -0.0208301 0.0182916 -0.0312484 5.51258e-05
internal_weight=0 1444 913 82 531 102 429 10977 783 756 213 543 451 424 266 103 158 130 103 157 65 61 831 360 340 107 233 49 184 10194
internal_count=12421 1444 913 82 531 102 429 10977 783 756 213 543 451 424 266 103 158 130 103 157 65 61 831 360 340 107 233 49 184 10194
is_linear=0
shrinkage=0.1


Tree=34
num_leaves=31
num_cat=0
split_feature=8 13 8 8 8 7 7 8 8 8 15 11 8 11 7 0 1 5 14 7 22 3 1 7 7 2 2 13 7 14
split_gain=6.41796 6.24004 11.5234 19.185 10.8589 36.261 18.3041 16.7955 12.8808 20.5968 15.8122 12.7165 12.3406 13.0728 12.2821 12.217 11.6781 11.4366 11.3984 13.6727 11.7113 10.5652 12.5352 12.9736 11.3926 12.9149 13.1911 10.5045 14.2963 10.2391
threshold=497.50000000000006 9.1939000000000011 702.50000000000011 802.50000000000011 1042.5000000000002 11.955300000000001 8.7702000000000009 832.50000000000011 1085.0000000000002 1107.5000000000002 3.5000000000000004 17.051750000000002 1037.5000000000002 27.717700000000004 8.6477000000000022 34.500000000000007 4.5500000000000007 76.727340500000011 618.04804000000001 18.351000000000003 1.0000000180025095e-35 75.890980500000012 4.7500000000000009 18.128750000000004 25.169150000000005 19.128885500000003 18.544942000000002 34.400000000000006 22.118000000000006 167.52824000000004
decision_type=2 2 2 2 2 2 2 2 2 2 2 2 2 2 2 2 2 2 2 2 2 2 2 2 2 2 2 2 2 2
left_child=-1 2 -2 -4 5 6 14 -7 18 10 15 -8 13 -9 -3 -10 29 -17 19 20 -6 22 24 -24 25 26 -20 28 -23 -13
right_child=1 4 3 -5 8 7 11 12 9 -11 -12 16 -14 -15 -16 17 -18 -19 21 -21 -22 27 23 -25 -26 -27 -28 -29 -30 -31
leaf_value=-0.019070433050222782 0.0040397573820634925 -0.0068760718560525146 0.087431095128363764 0.0017945847773956039 -0.011330570514250246 0.038436364061359703 0.080381234597276766 0.013182477763405554 -0.011447276237886399 0.0010164282394088443 -0.034322308196257555 -0.018834048051100512 -0.01119640466876992 -0.060457239411564334 -0.071876849929491685 -0.002833233538853086 0.0026287114875805048 0.096890660342962842 0.011294640067287467 -0.084246101721443922 0.058740977517196119 0.0049549789387406361 0.075030347708981121 0.012792862537053397 0.070012330031022432 0.018994365682636825 -0.099508870978440564 0.030026273605164508 -0.057645369174594924 0.051607731290161607
leaf_weight=174 609 937 47 59 161 29 27 27 160 7970 302 26 101 225 30 23 450 23 22 22 28 331 91 53 32 158 21 142 41 100
leaf_count=174 609 937 47 59 161 29 27 27 160 7970 302 26 101 225 30 23 450 23 22 22 28 331 91 53 32 158 21 142 41 100
internal_value=0 0.000270944 0.00933616 0.0397655 -0.000291112 -0.00708915 -0.000366168 -0.0347202 0.00109404 -0.00022796 -0.0197511 0.0133073 -0.0407303 -0.0525673 -0.00889264 0.00161047 0.0101632 0.0470287 0.0112646 -0.00963454 -0.0009496 0.0162138 0.0289286 0.0521235 0.0145936 0.00577067 -0.0428187 0.00688788 -0.00194452 0.0370721
internal_weight=0 12247 715 106 11532 1952 1570 382 9580 8478 508 603 353 252 967 206 576 46 1102 211 189 891 377 144 233 201 43 514 372 126
internal_count=12421 12247 715 106 11532 1952 1570 382 9580 8478 508 603 353 252 967 206 576 46 1102 211 189 891 377 144 233 201 43 514 372 126
is_linear=0
shrinkage=0.1


Tree=35
num_leaves=31
num_cat=0
split_feature=19 3 23 3 3 1 2 2 2 29 1 12 7 7 7 0 12 2 14 6 2 7 5 7 13 30 1 2 2 14
split_gain=5.716 6.10174 11.3137 9.82244 6.41267 6.77056 6.14003 6.1126 6.91161 5.8604 13.7399 10.7412 6.12422 12.6309 8.59681 7.27348 6.76837 6.65954 6.82678 5.84696 9.84164 10.4958 10.8777 9.65411 8.80528 9.09667 8.03488 8.81118 9.06459 15.4871
